{"learner":{"attributes":{"scikit_learn":"{\"_estimator_type\": \"classifier\"}"},"feature_names":[],"feature_types":[],"gradient_booster":{"model":{"gbtree_model_param":{"num_parallel_tree":"1","num_trees":"1056"},"iteration_indptr":[0,3,6,9,12,15,18,21,24,27,30,33,36,39,42,45,48,51,54,57,60,63,66,69,72,75,78,81,84,87,90,93,96,99,102,105,108,111,114,117,120,123,126,129,132,135,138,141,144,147,150,153,156,159,162,165,168,171,174,177,180,183,186,189,192,195,198,201,204,207,210,213,216,219,222,225,228,231,234,237,240,243,246,249,252,255,258,261,264,267,270,273,276,279,282,285,288,291,294,297,300,303,306,309,312,315,318,321,324,327,330,333,336,339,342,345,348,351,354,357,360,363,366,369,372,375,378,381,384,387,390,393,396,399,402,405,408,411,414,417,420,423,426,429,432,435,438,441,444,447,450,453,456,459,462,465,468,471,474,477,480,483,486,489,492,495,498,501,504,507,510,513,516,519,522,525,528,531,534,537,540,543,546,549,552,555,558,561,564,567,570,573,576,579,582,585,588,591,594,597,600,603,606,609,612,615,618,621,624,627,630,633,636,639,642,645,648,651,654,657,660,663,666,669,672,675,678,681,684,687,690,693,696,699,702,705,708,711,714,717,720,723,726,729,732,735,738,741,744,747,750,753,756,759,762,765,768,771,774,777,780,783,786,789,792,795,798,801,804,807,810,813,816,819,822,825,828,831,834,837,840,843,846,849,852,855,858,861,864,867,870,873,876,879,882,885,888,891,894,897,900,903,906,909,912,915,918,921,924,927,930,933,936,939,942,945,948,951,954,957,960,963,966,969,972,975,978,981,984,987,990,993,996,999,1002,1005,1008,1011,1014,1017,1020,1023,1026,1029,1032,1035,1038,1041,1044,1047,1050,1053,1056],"tree_info":[0,1,2,0,1,2,0,1,2,0,1,2,0,1,2,0,1,2,0,1,2,0,1,2,0,1,2,0,1,2,0,1,2,0,1,2,0,1,2,0,1,2,0,1,2,0,1,2,0,1,2,0,1,2,0,1,2,0,1,2,0,1,2,0,1,2,0,1,2,0,1,2,0,1,2,0,1,2,0,1,2,0,1,2,0,1,2,0,1,2,0,1,2,0,1,2,0,1,2,0,1,2,0,1,2,0,1,2,0,1,2,0,1,2,0,1,2,0,1,2,0,1,2,0,1,2,0,1,2,0,1,2,0,1,2,0,1,2,0,1,2,0,1,2,0,1,2,0,1,2,0,1,2,0,1,2,0,1,2,0,1,2,0,1,2,0,1,2,0,1,2,0,1,2,0,1,2,0,1,2,0,1,2,0,1,2,0,1,2,0,1,2,0,1,2,0,1,2,0,1,2,0,1,2,0,1,2,0,1,2,0,1,2,0,1,2,0,1,2,0,1,2,0,1,2,0,1,2,0,1,2,0,1,2,0,1,2,0,1,2,0,1,2,0,1,2,0,1,2,0,1,2,0,1,2,0,1,2,0,1,2,0,1,2,0,1,2,0,1,2,0,1,2,0,1,2,0,1,2,0,1,2,0,1,2,0,1,2,0,1,2,0,1,2,0,1,2,0,1,2,0,1,2,0,1,2,0,1,2,0,1,2,0,1,2,0,1,2,0,1,2,0,1,2,0,1,2,0,1,2,0,1,2,0,1,2,0,1,2,0,1,2,0,1,2,0,1,2,0,1,2,0,1,2,0,1,2,0,1,2,0,1,2,0,1,2,0,1,2,0,1,2,0,1,2,0,1,2,0,1,2,0,1,2,0,1,2,0,1,2,0,1,2,0,1,2,0,1,2,0,1,2,0,1,2,0,1,2,0,1,2,0,1,2,0,1,2,0,1,2,0,1,2,0,1,2,0,1,2,0,1,2,0,1,2,0,1,2,0,1,2,0,1,2,0,1,2,0,1,2,0,1,2,0,1,2,0,1,2,0,1,2,0,1,2,0,1,2,0,1,2,0,1,2,0,1,2,0,1,2,0,1,2,0,1,2,0,1,2,0,1,2,0,1,2,0,1,2,0,1,2,0,1,2,0,1,2,0,1,2,0,1,2,0,1,2,0,1,2,0,1,2,0,1,2,0,1,2,0,1,2,0,1,2,0,1,2,0,1,2,0,1,2,0,1,2,0,1,2,0,1,2,0,1,2,0,1,2,0,1,2,0,1,2,0,1,2,0,1,2,0,1,2,0,1,2,0,1,2,0,1,2,0,1,2,0,1,2,0,1,2,0,1,2,0,1,2,0,1,2,0,1,2,0,1,2,0,1,2,0,1,2,0,1,2,0,1,2,0,1,2,0,1,2,0,1,2,0,1,2,0,1,2,0,1,2,0,1,2,0,1,2,0,1,2,0,1,2,0,1,2,0,1,2,0,1,2,0,1,2,0,1,2,0,1,2,0,1,2,0,1,2,0,1,2,0,1,2,0,1,2,0,1,2,0,1,2,0,1,2,0,1,2,0,1,2,0,1,2,0,1,2,0,1,2,0,1,2,0,1,2,0,1,2,0,1,2,0,1,2,0,1,2,0,1,2,0,1,2,0,1,2,0,1,2,0,1,2,0,1,2,0,1,2,0,1,2,0,1,2,0,1,2,0,1,2,0,1,2,0,1,2,0,1,2,0,1,2,0,1,2,0,1,2,0,1,2,0,1,2,0,1,2,0,1,2,0,1,2,0,1,2,0,1,2,0,1,2,0,1,2,0,1,2,0,1,2,0,1,2,0,1,2,0,1,2,0,1,2,0,1,2,0,1,2,0,1,2,0,1,2,0,1,2,0,1,2,0,1,2,0,1,2,0,1,2,0,1,2,0,1,2,0,1,2,0,1,2,0,1,2,0,1,2,0,1,2,0,1,2,0,1,2,0,1,2,0,1,2,0,1,2,0,1,2,0,1,2,0,1,2,0,1,2,0,1,2,0,1,2,0,1,2,0,1,2,0,1,2,0,1,2,0,1,2,0,1,2,0,1,2,0,1,2,0,1,2,0,1,2,0,1,2,0,1,2,0,1,2,0,1,2,0,1,2,0,1,2,0,1,2,0,1,2,0,1,2,0,1,2,0,1,2,0,1,2,0,1,2,0,1,2,0,1,2,0,1,2,0,1,2,0,1,2,0,1,2,0,1,2,0,1,2,0,1,2,0,1,2,0,1,2,0,1,2,0,1,2,0,1,2,0,1,2,0,1,2,0,1,2,0,1,2,0,1,2,0,1,2,0,1,2,0,1,2,0,1,2,0,1,2,0,1,2,0,1,2,0,1,2,0,1,2,0,1,2],"trees":[{"base_weights":[1.9495507E-1,-1.1916381E-1,6.9128996E-1,-2.966224E-3,8.331921E-4,9.02996E-3,3.8372357E-3],"categories":[],"categories_nodes":[],"categories_segments":[],"categories_sizes":[],"default_left":[0,0,0,0,0,0,0],"id":0,"left_children":[1,3,5,-1,-1,-1,-1],"loss_changes":[1.2163876E2,2.4102482E1,2.653006E1,0E0,0E0,0E0,0E0],"parents":[2147483647,0,0,1,1,2,2],"right_children":[2,4,6,-1,-1,-1,-1],"split_conditions":[-1.7716527E-2,-7.572369E-1,-1.8962294E0,-2.966224E-3,8.331921E-4,9.02996E-3,3.8372357E-3],"split_indices":[3,3,5,0,0,0,0],"split_type":[0,0,0,0,0,0,0],"sum_hessian":[7.786666E2,4.773333E2,3.013333E2,2.311111E2,2.4622221E2,1.1555555E2,1.8577777E2],"tree_param":{"num_deleted":"0","num_feature":"12","num_nodes":"7","size_leaf_vector":"1"}},{"base_weights":[-1.8854216E-1,-4.6901816E-1,-1.39033E-1,-4.146164E-3,3.502793E-3,-1.538489E-3,6.342467E-4],"categories":[],"categories_nodes":[],"categories_segments":[],"categories_sizes":[],"default_left":[0,0,0,0,0,0,0],"id":1,"left_children":[1,3,5,-1,-1,-1,-1],"loss_changes":[1.0761343E1,2.340639E0,6.0826864E0,0E0,0E0,0E0,0E0],"parents":[2147483647,0,0,1,1,2,2],"right_children":[2,4,6,-1,-1,-1,-1],"split_conditions":[-1.8962294E0,4.3988362E-1,-8.317021E-1,-4.146164E-3,3.502793E-3,-1.538489E-3,6.342467E-4],"split_indices":[5,11,4,0,0,0,0],"split_type":[0,0,0,0,0,0,0],"sum_hessian":[7.786666E2,1.1555555E2,6.631111E2,1.1333333E2,2.222222E0,5.5288885E2,1.1022221E2],"tree_param":{"num_deleted":"0","num_feature":"12","num_nodes":"7","size_leaf_vector":"1"}},{"base_weights":[-6.4130416E-3,-2.7498415E-1,5.40856E-1,-7.326593E-4,-3.908614E-3,6.231552E-3,2.9574211E-3],"categories":[],"categories_nodes":[],"categories_segments":[],"categories_sizes":[],"default_left":[0,0,0,0,0,0,0],"id":2,"left_children":[1,3,5,-1,-1,-1,-1],"loss_changes":[1.1474462E2,1.8387783E1,9.353638E0,0E0,0E0,0E0,0E0],"parents":[2147483647,0,0,1,1,2,2],"right_children":[2,4,6,-1,-1,-1,-1],"split_conditions":[-5.6033087E-1,9.5172E-2,-7.4172854E-1,-7.326593E-4,-3.908614E-3,6.231552E-3,2.9574211E-3],"split_indices":[5,3,8,0,0,0,0],"split_type":[0,0,0,0,0,0,0],"sum_hessian":[7.786666E2,5.226666E2,2.5599998E2,2.608889E2,2.6177777E2,1.2533333E2,1.3066666E2],"tree_param":{"num_deleted":"0","num_feature":"12","num_nodes":"7","size_leaf_vector":"1"}},{"base_weights":[1.9356321E-1,-1.1845984E-1,6.8490446E-1,-2.95115E-3,8.268749E-4,8.937264E-3,3.8033207E-3],"categories":[],"categories_nodes":[],"categories_segments":[],"categories_sizes":[],"default_left":[0,0,0,0,0,0,0],"id":3,"left_children":[1,3,5,-1,-1,-1,-1],"loss_changes":[1.1970893E2,2.3818117E1,2.602089E1,0E0,0E0,0E0,0E0],"parents":[2147483647,0,0,1,1,2,2],"right_children":[2,4,6,-1,-1,-1,-1],"split_conditions":[-1.7716527E-2,-7.572369E-1,-1.8962294E0,-2.95115E-3,8.268749E-4,8.937264E-3,3.8033207E-3],"split_indices":[3,3,5,0,0,0,0],"split_type":[0,0,0,0,0,0,0],"sum_hessian":[7.79301E2,4.770882E2,3.0221283E2,2.3075064E2,2.4633757E2,1.1605239E2,1.8616043E2],"tree_param":{"num_deleted":"0","num_feature":"12","num_nodes":"7","size_leaf_vector":"1"}},{"base_weights":[-1.8749799E-1,-4.667782E-1,-1.3827996E-1,-4.1271737E-3,3.499363E-3,-1.5306752E-3,6.318104E-4],"categories":[],"categories_nodes":[],"categories_segments":[],"categories_sizes":[],"default_left":[0,0,0,0,0,0,0],"id":4,"left_children":[1,3,5,-1,-1,-1,-1],"loss_changes":[1.0643904E1,2.3281097E0,6.025667E0,0E0,0E0,0E0,0E0],"parents":[2147483647,0,0,1,1,2,2],"right_children":[2,4,6,-1,-1,-1,-1],"split_conditions":[-1.8962294E0,4.3988362E-1,-8.317021E-1,-4.1271737E-3,3.499363E-3,-1.5306752E-3,6.318104E-4],"split_indices":[5,11,4,0,0,0,0],"split_type":[0,0,0,0,0,0,0],"sum_hessian":[7.7804443E2,1.1530122E2,6.6274316E2,1.1307832E2,2.2229044E0,5.525007E2,1.1024254E2],"tree_param":{"num_deleted":"0","num_feature":"12","num_nodes":"7","size_leaf_vector":"1"}},{"base_weights":[-6.3726E-3,-2.7363977E-1,5.3647655E-1,-7.2902534E-4,-3.8920555E-3,6.178953E-3,2.9336086E-3],"categories":[],"categories_nodes":[],"categories_segments":[],"categories_sizes":[],"default_left":[0,0,0,0,0,0,0],"id":5,"left_children":[1,3,5,-1,-1,-1,-1],"loss_changes":[1.132616E2,1.8218468E1,9.209953E0,0E0,0E0,0E0,0E0],"parents":[2147483647,0,0,1,1,2,2],"right_children":[2,4,6,-1,-1,-1,-1],"split_conditions":[-5.6033087E-1,9.5172E-2,-7.4172854E-1,-7.2902534E-4,-3.8920555E-3,6.178953E-3,2.9336086E-3],"split_indices":[5,3,8,0,0,0,0],"split_type":[0,0,0,0,0,0,0],"sum_hessian":[7.786409E2,5.220902E2,2.5655075E2,2.608093E2,2.612809E2,1.25684006E2,1.3086674E2],"tree_param":{"num_deleted":"0","num_feature":"12","num_nodes":"7","size_leaf_vector":"1"}},{"base_weights":[1.9218296E-1,-1.1776016E-1,6.786125E-1,-2.9361523E-3,8.206038E-4,8.846397E-3,3.7697882E-3],"categories":[],"categories_nodes":[],"categories_segments":[],"categories_sizes":[],"default_left":[0,0,0,0,0,0,0],"id":6,"left_children":[1,3,5,-1,-1,-1,-1],"loss_changes":[1.17815414E2,2.353703E1,2.5527328E1,0E0,0E0,0E0,0E0],"parents":[2147483647,0,0,1,1,2,2],"right_children":[2,4,6,-1,-1,-1,-1],"split_conditions":[-1.7716527E-2,-7.572369E-1,-1.8962294E0,-2.9361523E-3,8.206038E-4,8.846397E-3,3.7697882E-3],"split_indices":[3,3,5,0,0,0,0],"split_type":[0,0,0,0,0,0,0],"sum_hessian":[7.7991833E2,4.7684204E2,3.030763E2,2.3039012E2,2.4645193E2,1.16538445E2,1.8653784E2],"tree_param":{"num_deleted":"0","num_feature":"12","num_nodes":"7","size_leaf_vector":"1"}},{"base_weights":[-1.8645743E-1,-4.6454796E-1,-1.3752933E-1,-4.1082692E-3,3.4959584E-3,-1.522885E-3,6.293868E-4],"categories":[],"categories_nodes":[],"categories_segments":[],"categories_sizes":[],"default_left":[0,0,0,0,0,0,0],"id":7,"left_children":[1,3,5,-1,-1,-1,-1],"loss_changes":[1.0527653E1,2.3156738E0,5.9691105E0,0E0,0E0,0E0,0E0],"parents":[2147483647,0,0,1,1,2,2],"right_children":[2,4,6,-1,-1,-1,-1],"split_conditions":[-1.8962294E0,4.3988362E-1,-8.317021E-1,-4.1082692E-3,3.4959584E-3,-1.522885E-3,6.293868E-4],"split_indices":[5,11,4,0,0,0,0],"split_type":[0,0,0,0,0,0,0],"sum_hessian":[7.774212E2,1.1504581E2,6.623754E2,1.1282222E2,2.2235808E0,5.521127E2,1.10262726E2],"tree_param":{"num_deleted":"0","num_feature":"12","num_nodes":"7","size_leaf_vector":"1"}},{"base_weights":[-6.332407E-3,-2.7230138E-1,5.3214896E-1,-7.254096E-4,-3.8755746E-3,6.127091E-3,2.910029E-3],"categories":[],"categories_nodes":[],"categories_segments":[],"categories_sizes":[],"default_left":[0,0,0,0,0,0,0],"id":8,"left_children":[1,3,5,-1,-1,-1,-1],"loss_changes":[1.1179958E2,1.805072E1,9.069572E0,0E0,0E0,0E0,0E0],"parents":[2147483647,0,0,1,1,2,2],"right_children":[2,4,6,-1,-1,-1,-1],"split_conditions":[-5.6033087E-1,9.5172E-2,-7.4172854E-1,-7.254096E-4,-3.8755746E-3,6.127091E-3,2.910029E-3],"split_indices":[5,3,8,0,0,0,0],"split_type":[0,0,0,0,0,0,0],"sum_hessian":[7.786062E2,5.2151276E2,2.5709344E2,2.6073E2,2.6078275E2,1.2602904E2,1.310644E2],"tree_param":{"num_deleted":"0","num_feature":"12","num_nodes":"7","size_leaf_vector":"1"}},{"base_weights":[1.9081418E-1,-1.170647E-1,6.724116E-1,-2.9212297E-3,8.1437867E-4,8.757301E-3,3.7366312E-3],"categories":[],"categories_nodes":[],"categories_segments":[],"categories_sizes":[],"default_left":[0,0,0,0,0,0,0],"id":9,"left_children":[1,3,5,-1,-1,-1,-1],"loss_changes":[1.1595738E2,2.3259174E1,2.5048767E1,0E0,0E0,0E0,0E0],"parents":[2147483647,0,0,1,1,2,2],"right_children":[2,4,6,-1,-1,-1,-1],"split_conditions":[-1.7716527E-2,-7.572369E-1,-1.8962294E0,-2.9212297E-3,8.1437867E-4,8.757301E-3,3.7366312E-3],"split_indices":[3,3,5,0,0,0,0],"split_type":[0,0,0,0,0,0,0],"sum_hessian":[7.805188E2,4.7659488E2,3.039239E2,2.3002959E2,2.4656529E2,1.170138E2,1.869101E2],"tree_param":{"num_deleted":"0","num_feature":"12","num_nodes":"7","size_leaf_vector":"1"}},{"base_weights":[-1.8542048E-1,-4.6232718E-1,-1.3678114E-1,-4.089448E-3,3.4925784E-3,-1.5151192E-3,6.2697596E-4],"categories":[],"categories_nodes":[],"categories_segments":[],"categories_sizes":[],"default_left":[0,0,0,0,0,0,0],"id":10,"left_children":[1,3,5,-1,-1,-1,-1],"loss_changes":[1.0412567E1,2.30332E0,5.9130154E0,0E0,0E0,0E0,0E0],"parents":[2147483647,0,0,1,1,2,2],"right_children":[2,4,6,-1,-1,-1,-1],"split_conditions":[-1.8962294E0,4.3988362E-1,-8.317021E-1,-4.089448E-3,3.4925784E-3,-1.5151192E-3,6.2697596E-4],"split_indices":[5,11,4,0,0,0,0],"split_type":[0,0,0,0,0,0,0],"sum_hessian":[7.767972E2,1.14789345E2,6.620079E2,1.12565094E2,2.224252E0,5.517251E2,1.1028278E2],"tree_param":{"num_deleted":"0","num_feature":"12","num_nodes":"7","size_leaf_vector":"1"}},{"base_weights":[-6.2924433E-3,-2.7096894E-1,5.2787226E-1,-7.2181167E-4,-3.8591702E-3,6.075946E-3,2.8866807E-3],"categories":[],"categories_nodes":[],"categories_segments":[],"categories_sizes":[],"default_left":[0,0,0,0,0,0,0],"id":11,"left_children":[1,3,5,-1,-1,-1,-1],"loss_changes":[1.1035824E2,1.7884506E1,8.932373E0,0E0,0E0,0E0,0E0],"parents":[2147483647,0,0,1,1,2,2],"right_children":[2,4,6,-1,-1,-1,-1],"split_conditions":[-5.6033087E-1,9.5172E-2,-7.4172854E-1,-7.2181167E-4,-3.8591702E-3,6.075946E-3,2.8866807E-3],"split_indices":[5,3,8,0,0,0,0],"split_type":[0,0,0,0,0,0,0],"sum_hessian":[7.7856256E2,5.209344E2,2.576282E2,2.60651E2,2.602834E2,1.2636847E2,1.3125972E2],"tree_param":{"num_deleted":"0","num_feature":"12","num_nodes":"7","size_leaf_vector":"1"}},{"base_weights":[1.8945676E-1,-1.16373464E-1,6.663001E-1,-2.9063819E-3,8.081988E-4,8.669928E-3,3.7038438E-3],"categories":[],"categories_nodes":[],"categories_segments":[],"categories_sizes":[],"default_left":[0,0,0,0,0,0,0],"id":12,"left_children":[1,3,5,-1,-1,-1,-1],"loss_changes":[1.14133995E2,2.2984512E1,2.458458E1,0E0,0E0,0E0,0E0],"parents":[2147483647,0,0,1,1,2,2],"right_children":[2,4,6,-1,-1,-1,-1],"split_conditions":[-1.7716527E-2,-7.572369E-1,-1.8962294E0,-2.9063819E-3,8.081988E-4,8.669928E-3,3.7038438E-3],"split_indices":[3,3,5,0,0,0,0],"split_type":[0,0,0,0,0,0,0],"sum_hessian":[7.8110254E2,4.7634677E2,3.0475577E2,2.2966907E2,2.4667769E2,1.1747858E2,1.872772E2],"tree_param":{"num_deleted":"0","num_feature":"12","num_nodes":"7","size_leaf_vector":"1"}},{"base_weights":[-1.8438713E-1,-4.601159E-1,-1.3603535E-1,-4.070711E-3,3.4892233E-3,-1.5073768E-3,6.245772E-4],"categories":[],"categories_nodes":[],"categories_segments":[],"categories_sizes":[],"default_left":[0,0,0,0,0,0,0],"id":13,"left_children":[1,3,5,-1,-1,-1,-1],"loss_changes":[1.0298653E1,2.2910538E0,5.857376E0,0E0,0E0,0E0,0E0],"parents":[2147483647,0,0,1,1,2,2],"right_children":[2,4,6,-1,-1,-1,-1],"split_conditions":[-1.8962294E0,4.3988362E-1,-8.317021E-1,-4.070711E-3,3.4892233E-3,-1.5073768E-3,6.245772E-4],"split_indices":[5,11,4,0,0,0,0],"split_type":[0,0,0,0,0,0,0],"sum_hessian":[7.761724E2,1.1453186E2,6.6164056E2,1.1230694E2,2.2249184E0,5.513378E2,1.1030271E2],"tree_param":{"num_deleted":"0","num_feature":"12","num_nodes":"7","size_leaf_vector":"1"}},{"base_weights":[-6.252696E-3,-2.6964244E-1,5.2364564E-1,-7.182319E-4,-3.842842E-3,6.025507E-3,2.8635596E-3],"categories":[],"categories_nodes":[],"categories_segments":[],"categories_sizes":[],"default_left":[0,0,0,0,0,0,0],"id":14,"left_children":[1,3,5,-1,-1,-1,-1],"loss_changes":[1.0893726E2,1.7719818E1,8.798241E0,0E0,0E0,0E0,0E0],"parents":[2147483647,0,0,1,1,2,2],"right_children":[2,4,6,-1,-1,-1,-1],"split_conditions":[-5.6033087E-1,9.5172E-2,-7.4172854E-1,-7.182319E-4,-3.842842E-3,6.025507E-3,2.8635596E-3],"split_indices":[5,3,8,0,0,0,0],"split_type":[0,0,0,0,0,0,0],"sum_hessian":[7.7851013E2,5.203551E2,2.5815506E2,2.6057227E2,2.5978284E2,1.2670236E2,1.314527E2],"tree_param":{"num_deleted":"0","num_feature":"12","num_nodes":"7","size_leaf_vector":"1"}},{"base_weights":[1.8811058E-1,-1.156864E-1,6.6027594E-1,-2.891608E-3,8.0206426E-4,8.584227E-3,3.6714198E-3],"categories":[],"categories_nodes":[],"categories_segments":[],"categories_sizes":[],"default_left":[0,0,0,0,0,0,0],"id":15,"left_children":[1,3,5,-1,-1,-1,-1],"loss_changes":[1.1234442E2,2.271301E1,2.4134262E1,0E0,0E0,0E0,0E0],"parents":[2147483647,0,0,1,1,2,2],"right_children":[2,4,6,-1,-1,-1,-1],"split_conditions":[-1.7716527E-2,-7.572369E-1,-1.8962294E0,-2.891608E-3,8.0206426E-4,8.584227E-3,3.6714198E-3],"split_indices":[3,3,5,0,0,0,0],"split_type":[0,0,0,0,0,0,0],"sum_hessian":[7.8166986E2,4.7609772E2,3.0557214E2,2.293086E2,2.4678911E2,1.1793288E2,1.8763925E2],"tree_param":{"num_deleted":"0","num_feature":"12","num_nodes":"7","size_leaf_vector":"1"}},{"base_weights":[-1.833574E-1,-4.579139E-1,-1.3529205E-1,-4.052054E-3,3.4858906E-3,-1.499659E-3,6.221911E-4],"categories":[],"categories_nodes":[],"categories_segments":[],"categories_sizes":[],"default_left":[0,0,0,0,0,0,0],"id":16,"left_children":[1,3,5,-1,-1,-1,-1],"loss_changes":[1.0185869E1,2.2788734E0,5.8021917E0,0E0,0E0,0E0,0E0],"parents":[2147483647,0,0,1,1,2,2],"right_children":[2,4,6,-1,-1,-1,-1],"split_conditions":[-1.8962294E0,4.3988362E-1,-8.317021E-1,-4.052054E-3,3.4858906E-3,-1.499659E-3,6.221911E-4],"split_indices":[5,11,4,0,0,0,0],"split_type":[0,0,0,0,0,0,0],"sum_hessian":[7.755468E2,1.1427338E2,6.612735E2,1.120478E2,2.2255797E0,5.509509E2,1.1032252E2],"tree_param":{"num_deleted":"0","num_feature":"12","num_nodes":"7","size_leaf_vector":"1"}},{"base_weights":[-6.2131933E-3,-2.683218E-1,5.1946807E-1,-7.146699E-4,-3.8265889E-3,4.8935576E-3,-4.211745E-4],"categories":[],"categories_nodes":[],"categories_segments":[],"categories_sizes":[],"default_left":[0,0,0,0,0,0,0],"id":17,"left_children":[1,3,5,-1,-1,-1,-1],"loss_changes":[1.0753624E2,1.7556633E1,8.693413E0,0E0,0E0,0E0,0E0],"parents":[2147483647,0,0,1,1,2,2],"right_children":[2,4,6,-1,-1,-1,-1],"split_conditions":[-5.6033087E-1,9.5172E-2,-1.1620816E-1,-7.146699E-4,-3.8265889E-3,4.8935576E-3,-4.211745E-4],"split_indices":[5,3,6,0,0,0,0],"split_type":[0,0,0,0,0,0,0],"sum_hessian":[7.7844916E2,5.19775E2,2.5867413E2,2.6049384E2,2.592812E2,2.3450856E2,2.416557E1],"tree_param":{"num_deleted":"0","num_feature":"12","num_nodes":"7","size_leaf_vector":"1"}},{"base_weights":[1.8677695E-1,-1.15001306E-1,6.543369E-1,-2.8769036E-3,7.960127E-4,8.500149E-3,3.6393527E-3],"categories":[],"categories_nodes":[],"categories_segments":[],"categories_sizes":[],"default_left":[0,0,0,0,0,0,0],"id":18,"left_children":[1,3,5,-1,-1,-1,-1],"loss_changes":[1.1058719E2,2.2445026E1,2.369722E1,0E0,0E0,0E0,0E0],"parents":[2147483647,0,0,1,1,2,2],"right_children":[2,4,6,-1,-1,-1,-1],"split_conditions":[-1.7716527E-2,-7.572369E-1,-1.8962294E0,-2.8769036E-3,7.960127E-4,8.500149E-3,3.6393527E-3],"split_indices":[3,3,5,0,0,0,0],"split_type":[0,0,0,0,0,0,0],"sum_hessian":[7.822204E2,4.758473E2,3.063731E2,2.2894843E2,2.4689886E2,1.18376816E2,1.8799629E2],"tree_param":{"num_deleted":"0","num_feature":"12","num_nodes":"7","size_leaf_vector":"1"}},{"base_weights":[-1.8232998E-1,-4.557212E-1,-1.3454959E-1,-4.0334803E-3,3.482581E-3,-1.5030056E-3,5.6753756E-4],"categories":[],"categories_nodes":[],"categories_segments":[],"categories_sizes":[],"default_left":[0,0,0,0,0,0,0],"id":19,"left_children":[1,3,5,-1,-1,-1,-1],"loss_changes":[1.0074324E1,2.2667751E0,5.7501993E0,0E0,0E0,0E0,0E0],"parents":[2147483647,0,0,1,1,2,2],"right_children":[2,4,6,-1,-1,-1,-1],"split_conditions":[-1.8962294E0,4.3988362E-1,-8.378549E-1,-4.0334803E-3,3.482581E-3,-1.5030056E-3,5.6753756E-4],"split_indices":[5,11,4,0,0,0,0],"split_type":[0,0,0,0,0,0,0],"sum_hessian":[7.749201E2,1.1401395E2,6.609062E2,1.1178771E2,2.226236E0,5.448074E2,1.16098785E2],"tree_param":{"num_deleted":"0","num_feature":"12","num_nodes":"7","size_leaf_vector":"1"}},{"base_weights":[-6.176685E-3,-2.6700705E-1,5.1532555E-1,-7.1112544E-4,-3.8104104E-3,5.933318E-3,2.8124051E-3],"categories":[],"categories_nodes":[],"categories_segments":[],"categories_sizes":[],"default_left":[0,0,0,0,0,0,0],"id":20,"left_children":[1,3,5,-1,-1,-1,-1],"loss_changes":[1.0615196E2,1.739494E1,8.608269E0,0E0,0E0,0E0,0E0],"parents":[2147483647,0,0,1,1,2,2],"right_children":[2,4,6,-1,-1,-1,-1],"split_conditions":[-5.6033087E-1,9.5172E-2,-7.4172854E-1,-7.1112544E-4,-3.8104104E-3,5.933318E-3,2.8124051E-3],"split_indices":[5,3,8,0,0,0,0],"split_type":[0,0,0,0,0,0,0],"sum_hessian":[7.783821E2,5.1919415E2,2.5918796E2,2.6041565E2,2.5877847E2,1.2731013E2,1.3187782E2],"tree_param":{"num_deleted":"0","num_feature":"12","num_nodes":"7","size_leaf_vector":"1"}},{"base_weights":[1.8545271E-1,-1.1432139E-1,6.484788E-1,-2.862281E-3,7.899957E-4,8.4176455E-3,3.6076042E-3],"categories":[],"categories_nodes":[],"categories_segments":[],"categories_sizes":[],"default_left":[0,0,0,0,0,0,0],"id":21,"left_children":[1,3,5,-1,-1,-1,-1],"loss_changes":[1.0886191E2,2.2180124E1,2.32733E1,0E0,0E0,0E0,0E0],"parents":[2147483647,0,0,1,1,2,2],"right_children":[2,4,6,-1,-1,-1,-1],"split_conditions":[-1.7716527E-2,-7.572369E-1,-1.8962294E0,-2.862281E-3,7.899957E-4,8.4176455E-3,3.6076042E-3],"split_indices":[3,3,5,0,0,0,0],"split_type":[0,0,0,0,0,0,0],"sum_hessian":[7.827554E2,4.755962E2,3.0715918E2,2.2858835E2,2.4700784E2,1.18810486E2,1.8834871E2],"tree_param":{"num_deleted":"0","num_feature":"12","num_nodes":"7","size_leaf_vector":"1"}},{"base_weights":[-1.8130751E-1,-4.5353752E-1,-1.3381124E-1,-4.014985E-3,3.4792933E-3,-1.4843724E-3,6.179994E-4],"categories":[],"categories_nodes":[],"categories_segments":[],"categories_sizes":[],"default_left":[0,0,0,0,0,0,0],"id":22,"left_children":[1,3,5,-1,-1,-1,-1],"loss_changes":[9.963787E0,2.2547607E0,5.6963625E0,0E0,0E0,0E0,0E0],"parents":[2147483647,0,0,1,1,2,2],"right_children":[2,4,6,-1,-1,-1,-1],"split_conditions":[-1.8962294E0,4.3988362E-1,-8.317021E-1,-4.014985E-3,3.4792933E-3,-1.4843724E-3,6.179994E-4],"split_indices":[5,11,4,0,0,0,0],"split_type":[0,0,0,0,0,0,0],"sum_hessian":[7.742934E2,1.1375361E2,6.605398E2,1.1152672E2,2.2268875E0,5.5018256E2,1.1035724E2],"tree_param":{"num_deleted":"0","num_feature":"12","num_nodes":"7","size_leaf_vector":"1"}},{"base_weights":[-6.1375992E-3,-2.6569754E-1,5.112417E-1,-7.075756E-4,-3.7943148E-3,4.817535E-3,-4.40222E-4],"categories":[],"categories_nodes":[],"categories_segments":[],"categories_sizes":[],"default_left":[0,0,0,0,0,0,0],"id":23,"left_children":[1,3,5,-1,-1,-1,-1],"loss_changes":[1.0478935E2,1.7235077E1,8.526131E0,0E0,0E0,0E0,0E0],"parents":[2147483647,0,0,1,1,2,2],"right_children":[2,4,6,-1,-1,-1,-1],"split_conditions":[-5.6033087E-1,9.5172E-2,-1.1620816E-1,-7.075756E-4,-3.7943148E-3,4.817535E-3,-4.40222E-4],"split_indices":[5,3,6,0,0,0,0],"split_type":[0,0,0,0,0,0,0],"sum_hessian":[7.7830444E2,5.1861237E2,2.5969208E2,2.603373E2,2.5827505E2,2.3548878E2,2.420329E1],"tree_param":{"num_deleted":"0","num_feature":"12","num_nodes":"7","size_leaf_vector":"1"}},{"base_weights":[1.8414079E-1,-1.1364449E-1,6.4270484E-1,-2.8477197E-3,7.840308E-4,8.3366735E-3,3.5762338E-3],"categories":[],"categories_nodes":[],"categories_segments":[],"categories_sizes":[],"default_left":[0,0,0,0,0,0,0],"id":24,"left_children":[1,3,5,-1,-1,-1,-1],"loss_changes":[1.071685E2,2.1918224E1,2.2861328E1,0E0,0E0,0E0,0E0],"parents":[2147483647,0,0,1,1,2,2],"right_children":[2,4,6,-1,-1,-1,-1],"split_conditions":[-1.7716527E-2,-7.572369E-1,-1.8962294E0,-2.8477197E-3,7.840308E-4,8.3366735E-3,3.5762338E-3],"split_indices":[3,3,5,0,0,0,0],"split_type":[0,0,0,0,0,0,0],"sum_hessian":[7.8327405E2,4.7534415E2,3.0792987E2,2.2822842E2,2.4711574E2,1.1923399E2,1.8869588E2],"tree_param":{"num_deleted":"0","num_feature":"12","num_nodes":"7","size_leaf_vector":"1"}},{"base_weights":[-1.8028733E-1,-4.5136294E-1,-1.330737E-1,-3.99657E-3,3.4760272E-3,-1.4876701E-3,5.6385435E-4],"categories":[],"categories_nodes":[],"categories_segments":[],"categories_sizes":[],"default_left":[0,0,0,0,0,0,0],"id":25,"left_children":[1,3,5,-1,-1,-1,-1],"loss_changes":[9.854462E0,2.2428265E0,5.6449842E0,0E0,0E0,0E0,0E0],"parents":[2147483647,0,0,1,1,2,2],"right_children":[2,4,6,-1,-1,-1,-1],"split_conditions":[-1.8962294E0,4.3988362E-1,-8.378549E-1,-3.99657E-3,3.4760272E-3,-1.4876701E-3,5.6385435E-4],"split_indices":[5,11,4,0,0,0,0],"split_type":[0,0,0,0,0,0,0],"sum_hessian":[7.736656E2,1.1349238E2,6.601732E2,1.1126485E2,2.2275348E0,5.4404236E2,1.161309E2],"tree_param":{"num_deleted":"0","num_feature":"12","num_nodes":"7","size_leaf_vector":"1"}},{"base_weights":[-6.1015035E-3,-2.643944E-1,5.071931E-1,-7.04066E-4,-3.7782833E-3,5.843408E-3,2.7623184E-3],"categories":[],"categories_nodes":[],"categories_segments":[],"categories_sizes":[],"default_left":[0,0,0,0,0,0,0],"id":26,"left_children":[1,3,5,-1,-1,-1,-1],"loss_changes":[1.0344348E2,1.707632E1,8.424988E0,0E0,0E0,0E0,0E0],"parents":[2147483647,0,0,1,1,2,2],"right_children":[2,4,6,-1,-1,-1,-1],"split_conditions":[-5.6033087E-1,9.5172E-2,-7.4172854E-1,-7.04066E-4,-3.7782833E-3,5.843408E-3,2.7623184E-3],"split_indices":[5,3,8,0,0,0,0],"split_type":[0,0,0,0,0,0,0],"sum_hessian":[7.78221E2,5.180301E2,2.6019092E2,2.602597E2,2.577704E2,1.27899376E2,1.3229153E2],"tree_param":{"num_deleted":"0","num_feature":"12","num_nodes":"7","size_leaf_vector":"1"}},{"base_weights":[1.8283802E-1,-1.1297265E-1,6.370081E-1,-2.8332386E-3,7.781002E-4,8.25719E-3,3.5451709E-3],"categories":[],"categories_nodes":[],"categories_segments":[],"categories_sizes":[],"default_left":[0,0,0,0,0,0,0],"id":27,"left_children":[1,3,5,-1,-1,-1,-1],"loss_changes":[1.0550554E2,2.1659332E1,2.2461494E1,0E0,0E0,0E0,0E0],"parents":[2147483647,0,0,1,1,2,2],"right_children":[2,4,6,-1,-1,-1,-1],"split_conditions":[-1.7716527E-2,-7.572369E-1,-1.8962294E0,-2.8332386E-3,7.781002E-4,8.25719E-3,3.5451709E-3],"split_indices":[3,3,5,0,0,0,0],"split_type":[0,0,0,0,0,0,0],"sum_hessian":[7.837775E2,4.7509152E2,3.08686E2,2.2786867E2,2.4722287E2,1.1964746E2,1.8903854E2],"tree_param":{"num_deleted":"0","num_feature":"12","num_nodes":"7","size_leaf_vector":"1"}},{"base_weights":[-1.7927217E-1,-4.491973E-1,-1.3234036E-1,-3.978234E-3,3.4727813E-3,-1.4691822E-3,6.138437E-4],"categories":[],"categories_nodes":[],"categories_segments":[],"categories_sizes":[],"default_left":[0,0,0,0,0,0,0],"id":28,"left_children":[1,3,5,-1,-1,-1,-1],"loss_changes":[9.74612E0,2.2309742E0,5.5921984E0,0E0,0E0,0E0,0E0],"parents":[2147483647,0,0,1,1,2,2],"right_children":[2,4,6,-1,-1,-1,-1],"split_conditions":[-1.8962294E0,4.3988362E-1,-8.317021E-1,-3.978234E-3,3.4727813E-3,-1.4691822E-3,6.138437E-4],"split_indices":[5,11,4,0,0,0,0],"split_type":[0,0,0,0,0,0,0],"sum_hessian":[7.7303784E2,1.132303E2,6.5980756E2,1.1100212E2,2.2281773E0,5.4941595E2,1.1039158E2],"tree_param":{"num_deleted":"0","num_feature":"12","num_nodes":"7","size_leaf_vector":"1"}},{"base_weights":[-6.0628555E-3,-2.6309642E-1,5.032013E-1,-7.00551E-4,-3.7623332E-3,4.743281E-3,-4.5886388E-4],"categories":[],"categories_nodes":[],"categories_segments":[],"categories_sizes":[],"default_left":[0,0,0,0,0,0,0],"id":29,"left_children":[1,3,5,-1,-1,-1,-1],"loss_changes":[1.02118576E2,1.6919361E1,8.364021E0,0E0,0E0,0E0,0E0],"parents":[2147483647,0,0,1,1,2,2],"right_children":[2,4,6,-1,-1,-1,-1],"split_conditions":[-5.6033087E-1,9.5172E-2,-1.1620816E-1,-7.00551E-4,-3.7623332E-3,4.743281E-3,-4.5886388E-4],"split_indices":[5,3,6,0,0,0,0],"split_type":[0,0,0,0,0,0,0],"sum_hessian":[7.781272E2,5.17447E2,2.606802E2,2.6018192E2,2.5726508E2,2.3644019E2,2.4240026E1],"tree_param":{"num_deleted":"0","num_feature":"12","num_nodes":"7","size_leaf_vector":"1"}},{"base_weights":[1.8154721E-1,-1.1230385E-1,6.31392E-1,-2.8188177E-3,7.722209E-4,8.179153E-3,3.5144733E-3],"categories":[],"categories_nodes":[],"categories_segments":[],"categories_sizes":[],"default_left":[0,0,0,0,0,0,0],"id":30,"left_children":[1,3,5,-1,-1,-1,-1],"loss_changes":[1.03873024E2,2.140338E1,2.2072754E1,0E0,0E0,0E0,0E0],"parents":[2147483647,0,0,1,1,2,2],"right_children":[2,4,6,-1,-1,-1,-1],"split_conditions":[-1.7716527E-2,-7.572369E-1,-1.8962294E0,-2.8188177E-3,7.722209E-4,8.179153E-3,3.5144733E-3],"split_indices":[3,3,5,0,0,0,0],"split_type":[0,0,0,0,0,0,0],"sum_hessian":[7.842651E2,4.7483804E2,3.0942703E2,2.2750916E2,2.4732889E2,1.2005096E2,1.8937605E2],"tree_param":{"num_deleted":"0","num_feature":"12","num_nodes":"7","size_leaf_vector":"1"}},{"base_weights":[-1.782593E-1,-4.4704056E-1,-1.3160786E-1,-3.9599757E-3,3.4695556E-3,-1.4724317E-3,5.602001E-4],"categories":[],"categories_nodes":[],"categories_segments":[],"categories_sizes":[],"default_left":[0,0,0,0,0,0,0],"id":31,"left_children":[1,3,5,-1,-1,-1,-1],"loss_changes":[9.638971E0,2.219202E0,5.541416E0,0E0,0E0,0E0,0E0],"parents":[2147483647,0,0,1,1,2,2],"right_children":[2,4,6,-1,-1,-1,-1],"split_conditions":[-1.8962294E0,4.3988362E-1,-8.378549E-1,-3.9599757E-3,3.4695556E-3,-1.4724317E-3,5.602001E-4],"split_indices":[5,11,4,0,0,0,0],"split_type":[0,0,0,0,0,0,0],"sum_hessian":[7.724091E2,1.1296739E2,6.594417E2,1.1073858E2,2.2288156E0,5.432791E2,1.1616264E2],"tree_param":{"num_deleted":"0","num_feature":"12","num_nodes":"7","size_leaf_vector":"1"}},{"base_weights":[-6.027147E-3,-2.6180473E-1,4.992433E-1,-6.970754E-4,-3.7464458E-3,4.705791E-3,-4.6164822E-4],"categories":[],"categories_nodes":[],"categories_segments":[],"categories_sizes":[],"default_left":[0,0,0,0,0,0,0],"id":32,"left_children":[1,3,5,-1,-1,-1,-1],"loss_changes":[1.0080982E2,1.6763481E1,8.256676E0,0E0,0E0,0E0,0E0],"parents":[2147483647,0,0,1,1,2,2],"right_children":[2,4,6,-1,-1,-1,-1],"split_conditions":[-5.6033087E-1,9.5172E-2,-1.1620816E-1,-6.970754E-4,-3.7464458E-3,4.705791E-3,-4.6164822E-4],"split_indices":[5,3,6,0,0,0,0],"split_type":[0,0,0,0,0,0,0],"sum_hessian":[7.780279E2,5.168635E2,2.6116437E2,2.601049E2,2.5675864E2,2.3691893E2,2.4245443E1],"tree_param":{"num_deleted":"0","num_feature":"12","num_nodes":"7","size_leaf_vector":"1"}},{"base_weights":[1.8026686E-1,-1.11637965E-1,6.2584984E-1,-2.8044744E-3,7.664136E-4,8.102522E-3,3.4840743E-3],"categories":[],"categories_nodes":[],"categories_segments":[],"categories_sizes":[],"default_left":[0,0,0,0,0,0,0],"id":33,"left_children":[1,3,5,-1,-1,-1,-1],"loss_changes":[1.02269E2,2.1150778E1,2.1695267E1,0E0,0E0,0E0,0E0],"parents":[2147483647,0,0,1,1,2,2],"right_children":[2,4,6,-1,-1,-1,-1],"split_conditions":[-1.7716527E-2,-7.572369E-1,-1.8962294E0,-2.8044744E-3,7.664136E-4,8.102522E-3,3.4840743E-3],"split_indices":[3,3,5,0,0,0,0],"split_type":[0,0,0,0,0,0,0],"sum_hessian":[7.8473724E2,4.7458347E2,3.101538E2,2.2715001E2,2.4743346E2,1.20444626E2,1.8970917E2],"tree_param":{"num_deleted":"0","num_feature":"12","num_nodes":"7","size_leaf_vector":"1"}},{"base_weights":[-1.7725012E-1,-4.448925E-1,-1.3087793E-1,-3.941793E-3,3.4663498E-3,-1.4541261E-3,6.100341E-4],"categories":[],"categories_nodes":[],"categories_segments":[],"categories_sizes":[],"default_left":[0,0,0,0,0,0,0],"id":34,"left_children":[1,3,5,-1,-1,-1,-1],"loss_changes":[9.532871E0,2.2075062E0,5.4914303E0,0E0,0E0,0E0,0E0],"parents":[2147483647,0,0,1,1,2,2],"right_children":[2,4,6,-1,-1,-1,-1],"split_conditions":[-1.8962294E0,4.3988362E-1,-8.317021E-1,-3.941793E-3,3.4663498E-3,-1.4541261E-3,6.100341E-4],"split_indices":[5,11,4,0,0,0,0],"split_type":[0,0,0,0,0,0,0],"sum_hessian":[7.717801E2,1.12703705E2,6.5907635E2,1.1047425E2,2.2294495E0,5.4865344E2,1.104229E2],"tree_param":{"num_deleted":"0","num_feature":"12","num_nodes":"7","size_leaf_vector":"1"}},{"base_weights":[-5.9916433E-3,-2.605182E-1,4.953281E-1,-6.9359504E-4,-3.7306382E-3,5.715828E-3,2.68643E-3],"categories":[],"categories_nodes":[],"categories_segments":[],"categories_sizes":[],"default_left":[0,0,0,0,0,0,0],"id":35,"left_children":[1,3,5,-1,-1,-1,-1],"loss_changes":[9.95187E1,1.6609352E1,8.194649E0,0E0,0E0,0E0,0E0],"parents":[2147483647,0,0,1,1,2,2],"right_children":[2,4,6,-1,-1,-1,-1],"split_conditions":[-5.6033087E-1,9.5172E-2,-7.4172854E-1,-6.9359504E-4,-3.7306382E-3,5.715828E-3,2.68643E-3],"split_indices":[5,3,8,0,0,0,0],"split_type":[0,0,0,0,0,0,0],"sum_hessian":[7.779208E2,5.1627936E2,2.6164142E2,2.6002768E2,2.5625168E2,1.287286E2,1.329128E2],"tree_param":{"num_deleted":"0","num_feature":"12","num_nodes":"7","size_leaf_vector":"1"}},{"base_weights":[1.7899528E-1,-1.10979185E-1,6.2038493E-1,-2.7901947E-3,7.6058035E-4,8.027258E-3,3.4540293E-3],"categories":[],"categories_nodes":[],"categories_segments":[],"categories_sizes":[],"default_left":[0,0,0,0,0,0,0],"id":36,"left_children":[1,3,5,-1,-1,-1,-1],"loss_changes":[1.006953E2,2.0900227E1,2.132798E1,0E0,0E0,0E0,0E0],"parents":[2147483647,0,0,1,1,2,2],"right_children":[2,4,6,-1,-1,-1,-1],"split_conditions":[-1.7716527E-2,-7.572369E-1,-1.8962294E0,-2.7901947E-3,7.6058035E-4,8.027258E-3,3.4540293E-3],"split_indices":[3,3,5,0,0,0,0],"split_type":[0,0,0,0,0,0,0],"sum_hessian":[7.8519495E2,4.7432916E2,3.1086578E2,2.2679074E2,2.4753842E2,1.2082855E2,1.9003723E2],"tree_param":{"num_deleted":"0","num_feature":"12","num_nodes":"7","size_leaf_vector":"1"}},{"base_weights":[-1.7624585E-1,-4.427531E-1,-1.3015205E-1,-3.9236876E-3,3.4631619E-3,-1.4572908E-3,5.565757E-4],"categories":[],"categories_nodes":[],"categories_segments":[],"categories_sizes":[],"default_left":[0,0,0,0,0,0,0],"id":37,"left_children":[1,3,5,-1,-1,-1,-1],"loss_changes":[9.427738E0,2.1958847E0,5.4394836E0,0E0,0E0,0E0,0E0],"parents":[2147483647,0,0,1,1,2,2],"right_children":[2,4,6,-1,-1,-1,-1],"split_conditions":[-1.8962294E0,4.3988362E-1,-8.378549E-1,-3.9236876E-3,3.4631619E-3,-1.4572908E-3,5.565757E-4],"split_indices":[5,11,4,0,0,0,0],"split_type":[0,0,0,0,0,0,0],"sum_hessian":[7.711512E2,1.1243927E2,6.587119E2,1.1020919E2,2.2300797E0,5.425179E2,1.16194046E2],"tree_param":{"num_deleted":"0","num_feature":"12","num_nodes":"7","size_leaf_vector":"1"}},{"base_weights":[-5.9536626E-3,-2.592379E-1,4.9147E-1,-6.9015374E-4,-3.714892E-3,4.634082E-3,-4.7971957E-4],"categories":[],"categories_nodes":[],"categories_segments":[],"categories_sizes":[],"default_left":[0,0,0,0,0,0,0],"id":38,"left_children":[1,3,5,-1,-1,-1,-1],"loss_changes":[9.8248566E1,1.6456287E1,8.102306E0,0E0,0E0,0E0,0E0],"parents":[2147483647,0,0,1,1,2,2],"right_children":[2,4,6,-1,-1,-1,-1],"split_conditions":[-5.6033087E-1,9.5172E-2,-1.1620816E-1,-6.9015374E-4,-3.714892E-3,4.634082E-3,-4.7971957E-4],"split_indices":[5,3,6,0,0,0,0],"split_type":[0,0,0,0,0,0,0],"sum_hessian":[7.778039E2,5.1569495E2,2.6210895E2,2.5995123E2,2.5574368E2,2.3782811E2,2.4280836E1],"tree_param":{"num_deleted":"0","num_feature":"12","num_nodes":"7","size_leaf_vector":"1"}},{"base_weights":[1.7773533E-1,-1.1032117E-1,6.149907E-1,-2.775988E-3,7.5485645E-4,7.953324E-3,3.424272E-3],"categories":[],"categories_nodes":[],"categories_segments":[],"categories_sizes":[],"default_left":[0,0,0,0,0,0,0],"id":39,"left_children":[1,3,5,-1,-1,-1,-1],"loss_changes":[9.914815E1,2.0653347E1,2.0971169E1,0E0,0E0,0E0,0E0],"parents":[2147483647,0,0,1,1,2,2],"right_children":[2,4,6,-1,-1,-1,-1],"split_conditions":[-1.7716527E-2,-7.572369E-1,-1.8962294E0,-2.775988E-3,7.5485645E-4,7.953324E-3,3.424272E-3],"split_indices":[3,3,5,0,0,0,0],"split_type":[0,0,0,0,0,0,0],"sum_hessian":[7.856372E2,4.7407333E2,3.1156384E2,2.2643213E2,2.4764119E2,1.2120286E2,1.90361E2],"tree_param":{"num_deleted":"0","num_feature":"12","num_nodes":"7","size_leaf_vector":"1"}},{"base_weights":[-1.7524405E-1,-4.406224E-1,-1.2942722E-1,-3.9056572E-3,3.4599928E-3,-1.4391302E-3,6.059438E-4],"categories":[],"categories_nodes":[],"categories_segments":[],"categories_sizes":[],"default_left":[0,0,0,0,0,0,0],"id":40,"left_children":[1,3,5,-1,-1,-1,-1],"loss_changes":[9.32374E0,2.1843414E0,5.390501E0,0E0,0E0,0E0,0E0],"parents":[2147483647,0,0,1,1,2,2],"right_children":[2,4,6,-1,-1,-1,-1],"split_conditions":[-1.8962294E0,4.3988362E-1,-8.317021E-1,-3.9056572E-3,3.4599928E-3,-1.4391302E-3,6.059438E-4],"split_indices":[5,11,4,0,0,0,0],"split_type":[0,0,0,0,0,0,0],"sum_hessian":[7.705215E2,1.1217409E2,6.583474E2,1.0994338E2,2.230706E0,5.4789087E2,1.10456505E2],"tree_param":{"num_deleted":"0","num_feature":"12","num_nodes":"7","size_leaf_vector":"1"}},{"base_weights":[-5.91859E-3,-2.579627E-1,4.8764095E-1,-4.887639E-3,-1.3399515E-3,5.6312867E-3,2.638884E-3],"categories":[],"categories_nodes":[],"categories_segments":[],"categories_sizes":[],"default_left":[0,0,0,0,0,0,0],"id":41,"left_children":[1,3,5,-1,-1,-1,-1],"loss_changes":[9.6992836E1,1.6340248E1,8.026535E0,0E0,0E0,0E0,0E0],"parents":[2147483647,0,0,1,1,2,2],"right_children":[2,4,6,-1,-1,-1,-1],"split_conditions":[-5.6033087E-1,-1.8371252E0,-7.4172854E-1,-4.887639E-3,-1.3399515E-3,5.6312867E-3,2.638884E-3],"split_indices":[5,5,8,0,0,0,0],"split_type":[0,0,0,0,0,0,0],"sum_hessian":[7.7768164E2,5.1510986E2,2.6257178E2,1.2136547E2,3.937444E2,1.2927303E2,1.3329875E2],"tree_param":{"num_deleted":"0","num_feature":"12","num_nodes":"7","size_leaf_vector":"1"}},{"base_weights":[1.7648369E-1,-1.09741375E-1,6.0983247E-1,-2.761862E-3,7.4782E-4,7.877007E-3,3.398799E-3],"categories":[],"categories_nodes":[],"categories_segments":[],"categories_sizes":[],"default_left":[0,0,0,0,0,0,0],"id":42,"left_children":[1,3,5,-1,-1,-1,-1],"loss_changes":[9.769074E1,2.039463E1,2.0552513E1,0E0,0E0,0E0,0E0],"parents":[2147483647,0,0,1,1,2,2],"right_children":[2,4,6,-1,-1,-1,-1],"split_conditions":[-1.7716527E-2,-7.572369E-1,-1.8962294E0,-2.761862E-3,7.4782E-4,7.877007E-3,3.398799E-3],"split_indices":[3,3,5,0,0,0,0],"split_type":[0,0,0,0,0,0,0],"sum_hessian":[7.860649E2,4.7384137E2,3.1222348E2,2.2607387E2,2.4776752E2,1.2158602E2,1.9063747E2],"tree_param":{"num_deleted":"0","num_feature":"12","num_nodes":"7","size_leaf_vector":"1"}},{"base_weights":[-1.742454E-1,-4.386812E-1,-1.2866278E-1,-3.889197E-3,3.454829E-3,-1.4310316E-3,6.026662E-4],"categories":[],"categories_nodes":[],"categories_segments":[],"categories_sizes":[],"default_left":[0,0,0,0,0,0,0],"id":43,"left_children":[1,3,5,-1,-1,-1,-1],"loss_changes":[9.235651E0,2.17268E0,5.331105E0,0E0,0E0,0E0,0E0],"parents":[2147483647,0,0,1,1,2,2],"right_children":[2,4,6,-1,-1,-1,-1],"split_conditions":[-1.8962294E0,4.3988362E-1,-8.317021E-1,-3.889197E-3,3.454829E-3,-1.4310316E-3,6.026662E-4],"split_indices":[5,11,4,0,0,0,0],"split_type":[0,0,0,0,0,0,0],"sum_hessian":[7.6989276E2,1.1193088E2,6.579619E2,1.0969916E2,2.2317255E0,5.474784E2,1.1048353E2],"tree_param":{"num_deleted":"0","num_feature":"12","num_nodes":"7","size_leaf_vector":"1"}},{"base_weights":[-5.882196E-3,-2.5669366E-1,4.8386723E-1,-4.869952E-3,-1.333115E-3,4.5639877E-3,-4.974058E-4],"categories":[],"categories_nodes":[],"categories_segments":[],"categories_sizes":[],"default_left":[0,0,0,0,0,0,0],"id":44,"left_children":[1,3,5,-1,-1,-1,-1],"loss_changes":[9.575763E1,1.6204575E1,7.9525223E0,0E0,0E0,0E0,0E0],"parents":[2147483647,0,0,1,1,2,2],"right_children":[2,4,6,-1,-1,-1,-1],"split_conditions":[-5.6033087E-1,-1.8371252E0,-1.1620816E-1,-4.869952E-3,-1.333115E-3,4.5639877E-3,-4.974058E-4],"split_indices":[5,5,6,0,0,0,0],"split_type":[0,0,0,0,0,0,0],"sum_hessian":[7.7755334E2,5.145281E2,2.6302527E2,1.2103467E2,3.934934E2,2.3870998E2,2.4315302E1],"tree_param":{"num_deleted":"0","num_feature":"12","num_nodes":"7","size_leaf_vector":"1"}},{"base_weights":[1.7524336E-1,-1.0916294E-1,6.0474145E-1,-2.7478011E-3,7.40877E-4,7.8020496E-3,3.3735735E-3],"categories":[],"categories_nodes":[],"categories_segments":[],"categories_sizes":[],"default_left":[0,0,0,0,0,0,0],"id":45,"left_children":[1,3,5,-1,-1,-1,-1],"loss_changes":[9.625791E1,2.013942E1,2.0145859E1,0E0,0E0,0E0,0E0],"parents":[2147483647,0,0,1,1,2,2],"right_children":[2,4,6,-1,-1,-1,-1],"split_conditions":[-1.7716527E-2,-7.572369E-1,-1.8962294E0,-2.7478011E-3,7.40877E-4,7.8020496E-3,3.3735735E-3],"split_indices":[3,3,5,0,0,0,0],"split_type":[0,0,0,0,0,0,0],"sum_hessian":[7.8647736E2,4.7360803E2,3.1286932E2,2.2571616E2,2.4789188E2,1.2195895E2,1.9091039E2],"tree_param":{"num_deleted":"0","num_feature":"12","num_nodes":"7","size_leaf_vector":"1"}},{"base_weights":[-1.7324905E-1,-4.3674543E-1,-1.2789997E-1,-3.8727848E-3,3.4497147E-3,-1.4335861E-3,5.4952304E-4],"categories":[],"categories_nodes":[],"categories_segments":[],"categories_sizes":[],"default_left":[0,0,0,0,0,0,0],"id":46,"left_children":[1,3,5,-1,-1,-1,-1],"loss_changes":[9.148262E0,2.1610947E0,5.2748613E0,0E0,0E0,0E0,0E0],"parents":[2147483647,0,0,1,1,2,2],"right_children":[2,4,6,-1,-1,-1,-1],"split_conditions":[-1.8962294E0,4.3988362E-1,-8.378549E-1,-3.8727848E-3,3.4497147E-3,-1.4335861E-3,5.4952304E-4],"split_indices":[5,11,4,0,0,0,0],"split_type":[0,0,0,0,0,0,0],"sum_hessian":[7.692635E2,1.1168692E2,6.5757654E2,1.09454185E2,2.2327344E0,5.4132153E2,1.1625502E2],"tree_param":{"num_deleted":"0","num_feature":"12","num_nodes":"7","size_leaf_vector":"1"}},{"base_weights":[-5.8487346E-3,-2.554303E-1,4.801229E-1,-6.747151E-4,-3.6719996E-3,5.548805E-3,2.5922863E-3],"categories":[],"categories_nodes":[],"categories_segments":[],"categories_sizes":[],"default_left":[0,0,0,0,0,0,0],"id":47,"left_children":[1,3,5,-1,-1,-1,-1],"loss_changes":[9.4536865E1,1.6104233E1,7.8644485E0,0E0,0E0,0E0,0E0],"parents":[2147483647,0,0,1,1,2,2],"right_children":[2,4,6,-1,-1,-1,-1],"split_conditions":[-5.6033087E-1,9.5172E-2,-7.4172854E-1,-6.747151E-4,-3.6719996E-3,5.548805E-3,2.5922863E-3],"split_indices":[5,3,8,0,0,0,0],"split_type":[0,0,0,0,0,0,0],"sum_hessian":[7.7742E2,5.13946E2,2.6347403E2,2.5960828E2,2.5433768E2,1.2979976E2,1.3367427E2],"tree_param":{"num_deleted":"0","num_feature":"12","num_nodes":"7","size_leaf_vector":"1"}},{"base_weights":[1.740117E-1,-1.0851745E-1,5.995532E-1,-2.733796E-3,7.352612E-4,7.731986E-3,3.3446634E-3],"categories":[],"categories_nodes":[],"categories_segments":[],"categories_sizes":[],"default_left":[0,0,0,0,0,0,0],"id":48,"left_children":[1,3,5,-1,-1,-1,-1],"loss_changes":[9.478979E1,1.990088E1,1.9819855E1,0E0,0E0,0E0,0E0],"parents":[2147483647,0,0,1,1,2,2],"right_children":[2,4,6,-1,-1,-1,-1],"split_conditions":[-1.7716527E-2,-7.572369E-1,-1.8962294E0,-2.733796E-3,7.352612E-4,7.731986E-3,3.3446634E-3],"split_indices":[3,3,5,0,0,0,0],"split_type":[0,0,0,0,0,0,0],"sum_hessian":[7.8687646E2,4.7335056E2,3.1352594E2,2.2535823E2,2.4799232E2,1.2230421E2,1.9122173E2],"tree_param":{"num_deleted":"0","num_feature":"12","num_nodes":"7","size_leaf_vector":"1"}},{"base_weights":[-1.7225945E-1,-4.3463814E-1,-1.2718472E-1,-3.8549604E-3,3.4466167E-3,-1.4155968E-3,5.9767236E-4],"categories":[],"categories_nodes":[],"categories_segments":[],"categories_sizes":[],"default_left":[0,0,0,0,0,0,0],"id":49,"left_children":[1,3,5,-1,-1,-1,-1],"loss_changes":[9.046911E0,2.1497726E0,5.2249117E0,0E0,0E0,0E0,0E0],"parents":[2147483647,0,0,1,1,2,2],"right_children":[2,4,6,-1,-1,-1,-1],"split_conditions":[-1.8962294E0,4.3988362E-1,-8.317021E-1,-3.8549604E-3,3.4466167E-3,-1.4155968E-3,5.9767236E-4],"split_indices":[5,11,4,0,0,0,0],"split_type":[0,0,0,0,0,0,0],"sum_hessian":[7.686339E2,1.114198E2,6.572141E2,1.09186455E2,2.2333453E0,5.4668964E2,1.1052448E2],"tree_param":{"num_deleted":"0","num_feature":"12","num_nodes":"7","size_leaf_vector":"1"}},{"base_weights":[-5.8115823E-3,-2.5417173E-1,4.7642946E-1,-4.837718E-3,-1.3181734E-3,4.495455E-3,-5.147168E-4],"categories":[],"categories_nodes":[],"categories_segments":[],"categories_sizes":[],"default_left":[0,0,0,0,0,0,0],"id":50,"left_children":[1,3,5,-1,-1,-1,-1],"loss_changes":[9.333459E1,1.5980122E1,7.807144E0,0E0,0E0,0E0,0E0],"parents":[2147483647,0,0,1,1,2,2],"right_children":[2,4,6,-1,-1,-1,-1],"split_conditions":[-5.6033087E-1,-1.8371252E0,-1.1620816E-1,-4.837718E-3,-1.3181734E-3,4.495455E-3,-5.147168E-4],"split_indices":[5,5,6,0,0,0,0],"split_type":[0,0,0,0,0,0,0],"sum_hessian":[7.772743E2,5.133603E2,2.63914E2,1.20423546E2,3.9293674E2,2.3956514E2,2.4348866E1],"tree_param":{"num_deleted":"0","num_feature":"12","num_nodes":"7","size_leaf_vector":"1"}},{"base_weights":[1.7279072E-1,-1.07945725E-1,5.9459305E-1,-2.7198668E-3,7.284234E-4,7.6595712E-3,3.3199505E-3],"categories":[],"categories_nodes":[],"categories_segments":[],"categories_sizes":[],"default_left":[0,0,0,0,0,0,0],"id":51,"left_children":[1,3,5,-1,-1,-1,-1],"loss_changes":[9.340625E1,1.965163E1,1.9434464E1,0E0,0E0,0E0,0E0],"parents":[2147483647,0,0,1,1,2,2],"right_children":[2,4,6,-1,-1,-1,-1],"split_conditions":[-1.7716527E-2,-7.572369E-1,-1.8962294E0,-2.7198668E-3,7.284234E-4,7.6595712E-3,3.3199505E-3],"split_indices":[3,3,5,0,0,0,0],"split_type":[0,0,0,0,0,0,0],"sum_hessian":[7.872603E2,4.7311563E2,3.1414465E2,2.2500122E2,2.4811443E2,1.2265748E2,1.9148717E2],"tree_param":{"num_deleted":"0","num_feature":"12","num_nodes":"7","size_leaf_vector":"1"}},{"base_weights":[-1.7127031E-1,-5.018395E-1,-1.3567625E-1,1.7776298E-4,-4.4116834E-3,-1.4894109E-3,5.450267E-4],"categories":[],"categories_nodes":[],"categories_segments":[],"categories_sizes":[],"default_left":[0,0,0,0,0,0,0],"id":52,"left_children":[1,3,5,-1,-1,-1,-1],"loss_changes":[8.980251E0,7.6242256E-1,5.6157722E0,0E0,0E0,0E0,0E0],"parents":[2147483647,0,0,1,1,2,2],"right_children":[2,4,6,-1,-1,-1,-1],"split_conditions":[-1.5912533E0,-2.7268875E-1,-8.378549E-1,1.7776298E-4,-4.4116834E-3,-1.4894109E-3,5.450267E-4],"split_indices":[4,10,4,0,0,0,0],"split_type":[0,0,0,0,0,0,0],"sum_hessian":[7.680045E2,7.3383E1,6.9462146E2,2.6123183E0,7.077068E1,5.783277E2,1.1629379E2],"tree_param":{"num_deleted":"0","num_feature":"12","num_nodes":"7","size_leaf_vector":"1"}},{"base_weights":[-5.7784943E-3,-2.5291944E-1,4.7276574E-1,-6.6542317E-4,-3.6430743E-3,4.4608153E-3,-5.1709055E-4],"categories":[],"categories_nodes":[],"categories_segments":[],"categories_sizes":[],"default_left":[0,0,0,0,0,0,0],"id":53,"left_children":[1,3,5,-1,-1,-1,-1],"loss_changes":[9.214699E1,1.5857716E1,7.7100945E0,0E0,0E0,0E0,0E0],"parents":[2147483647,0,0,1,1,2,2],"right_children":[2,4,6,-1,-1,-1,-1],"split_conditions":[-5.6033087E-1,9.5172E-2,-1.1620816E-1,-6.6542317E-4,-3.6430743E-3,4.4608153E-3,-5.1709055E-4],"split_indices":[5,3,6,0,0,0,0],"split_type":[0,0,0,0,0,0,0],"sum_hessian":[7.771269E2,5.127778E2,2.6434912E2,2.594011E2,2.5337666E2,2.3999577E2,2.4353361E1],"tree_param":{"num_deleted":"0","num_feature":"12","num_nodes":"7","size_leaf_vector":"1"}},{"base_weights":[1.7158379E-1,-1.0733208E-1,5.896051E-1,-2.7062998E-3,7.2283123E-4,7.593969E-3,3.2913785E-3],"categories":[],"categories_nodes":[],"categories_segments":[],"categories_sizes":[],"default_left":[0,0,0,0,0,0,0],"id":54,"left_children":[1,3,5,-1,-1,-1,-1],"loss_changes":[9.20122E1,1.94218E1,1.9146507E1,0E0,0E0,0E0,0E0],"parents":[2147483647,0,0,1,1,2,2],"right_children":[2,4,6,-1,-1,-1,-1],"split_conditions":[-1.7716527E-2,-7.572369E-1,-1.8962294E0,-2.7062998E-3,7.2283123E-4,7.593969E-3,3.2913785E-3],"split_indices":[3,3,5,0,0,0,0],"split_type":[0,0,0,0,0,0,0],"sum_hessian":[7.876331E2,4.728663E2,3.147668E2,2.246523E2,2.48214E2,1.22974236E2,1.9179257E2],"tree_param":{"num_deleted":"0","num_feature":"12","num_nodes":"7","size_leaf_vector":"1"}},{"base_weights":[-1.7028831E-1,-4.9982175E-1,-1.3487063E-1,1.8456361E-4,-4.3946104E-3,-1.4811913E-3,5.4334314E-4],"categories":[],"categories_nodes":[],"categories_segments":[],"categories_sizes":[],"default_left":[0,0,0,0,0,0,0],"id":55,"left_children":[1,3,5,-1,-1,-1,-1],"loss_changes":[8.900576E0,7.592373E-1,5.561099E0,0E0,0E0,0E0,0E0],"parents":[2147483647,0,0,1,1,2,2],"right_children":[2,4,6,-1,-1,-1,-1],"split_conditions":[-1.5912533E0,-2.7268875E-1,-8.378549E-1,1.8456361E-4,-4.3946104E-3,-1.4811913E-3,5.4334314E-4],"split_indices":[4,10,4,0,0,0,0],"split_type":[0,0,0,0,0,0,0],"sum_hessian":[7.6737866E2,7.3199875E1,6.941788E2,2.6102672E0,7.058961E1,5.778706E2,1.16308205E2],"tree_param":{"num_deleted":"0","num_feature":"12","num_nodes":"7","size_leaf_vector":"1"}},{"base_weights":[-5.746695E-3,-2.5165442E-1,4.6907887E-1,-4.8051868E-3,-1.3034822E-3,5.430622E-3,2.5214613E-3],"categories":[],"categories_nodes":[],"categories_segments":[],"categories_sizes":[],"default_left":[0,0,0,0,0,0,0],"id":56,"left_children":[1,3,5,-1,-1,-1,-1],"loss_changes":[9.0956116E1,1.5751167E1,7.656517E0,0E0,0E0,0E0,0E0],"parents":[2147483647,0,0,1,1,2,2],"right_children":[2,4,6,-1,-1,-1,-1],"split_conditions":[-5.6033087E-1,-1.8371252E0,-7.4172854E-1,-4.8051868E-3,-1.3034822E-3,5.430622E-3,2.5214613E-3],"split_indices":[5,5,8,0,0,0,0],"split_type":[0,0,0,0,0,0,0],"sum_hessian":[7.7696783E2,5.12183E2,2.647848E2,1.1979629E2,3.9238672E2,1.3054602E2,1.3423877E2],"tree_param":{"num_deleted":"0","num_feature":"12","num_nodes":"7","size_leaf_vector":"1"}},{"base_weights":[1.7038469E-1,-1.0679415E-1,5.8483595E-1,-2.6928121E-3,7.15983E-4,7.5259716E-3,3.266921E-3],"categories":[],"categories_nodes":[],"categories_segments":[],"categories_sizes":[],"default_left":[0,0,0,0,0,0,0],"id":57,"left_children":[1,3,5,-1,-1,-1,-1],"loss_changes":[9.069961E1,1.9180998E1,1.880011E1,0E0,0E0,0E0,0E0],"parents":[2147483647,0,0,1,1,2,2],"right_children":[2,4,6,-1,-1,-1,-1],"split_conditions":[-1.7716527E-2,-7.572369E-1,-1.8962294E0,-2.6928121E-3,7.15983E-4,7.5259716E-3,3.266921E-3],"split_indices":[3,3,5,0,0,0,0],"split_type":[0,0,0,0,0,0,0],"sum_hessian":[7.8799225E2,4.7263995E2,3.1535226E2,2.2430388E2,2.4833607E2,1.2329897E2,1.920533E2],"tree_param":{"num_deleted":"0","num_feature":"12","num_nodes":"7","size_leaf_vector":"1"}},{"base_weights":[-1.6930929E-1,-4.9791843E-1,-1.3405085E-1,1.902843E-4,-4.378486E-3,-1.4726073E-3,5.403664E-4],"categories":[],"categories_nodes":[],"categories_segments":[],"categories_sizes":[],"default_left":[0,0,0,0,0,0,0],"id":58,"left_children":[1,3,5,-1,-1,-1,-1],"loss_changes":[8.828642E0,7.5598145E-1,5.498026E0,0E0,0E0,0E0,0E0],"parents":[2147483647,0,0,1,1,2,2],"right_children":[2,4,6,-1,-1,-1,-1],"split_conditions":[-1.5912533E0,-2.7268875E-1,-8.378549E-1,1.902843E-4,-4.378486E-3,-1.4726073E-3,5.403664E-4],"split_indices":[4,10,4,0,0,0,0],"split_type":[0,0,0,0,0,0,0],"sum_hessian":[7.667541E2,7.302627E1,6.9372784E2,2.6085403E0,7.041773E1,5.773938E2,1.1633402E2],"tree_param":{"num_deleted":"0","num_feature":"12","num_nodes":"7","size_leaf_vector":"1"}},{"base_weights":[-5.713931E-3,-2.5039563E-1,4.6544278E-1,-4.7873515E-3,-1.2969107E-3,4.393401E-3,-5.3411763E-4],"categories":[],"categories_nodes":[],"categories_segments":[],"categories_sizes":[],"default_left":[0,0,0,0,0,0,0],"id":59,"left_children":[1,3,5,-1,-1,-1,-1],"loss_changes":[8.9784325E1,1.5613266E1,7.5688057E0,0E0,0E0,0E0,0E0],"parents":[2147483647,0,0,1,1,2,2],"right_children":[2,4,6,-1,-1,-1,-1],"split_conditions":[-5.6033087E-1,-1.8371252E0,-1.1620816E-1,-4.7873515E-3,-1.2969107E-3,4.393401E-3,-5.3411763E-4],"split_indices":[5,5,6,0,0,0,0],"split_type":[0,0,0,0,0,0,0],"sum_hessian":[7.768029E2,5.1159125E2,2.6521167E2,1.19448E2,3.9214325E2,2.4082549E2,2.4386173E1],"tree_param":{"num_deleted":"0","num_feature":"12","num_nodes":"7","size_leaf_vector":"1"}},{"base_weights":[1.691964E-1,5.147948E-1,-1.5826431E-1,7.4591096E-3,2.8583657E-3,-3.6023522E-3,-3.340833E-4],"categories":[],"categories_nodes":[],"categories_segments":[],"categories_sizes":[],"default_left":[0,0,0,0,0,0,0],"id":60,"left_children":[1,3,5,-1,-1,-1,-1],"loss_changes":[8.9410706E1,2.4639313E1,1.2877355E1,0E0,0E0,0E0,0E0],"parents":[2147483647,0,0,1,1,2,2],"right_children":[2,4,6,-1,-1,-1,-1],"split_conditions":[-1.0058922E0,-1.8962294E0,-1.146851E0,7.4591096E-3,2.8583657E-3,-3.6023522E-3,-3.340833E-4],"split_indices":[5,5,3,0,0,0,0],"split_type":[0,0,0,0,0,0,0],"sum_hessian":[7.8833734E2,3.8326822E2,4.0506912E2,1.2361449E2,2.5965375E2,1.23844124E2,2.81225E2],"tree_param":{"num_deleted":"0","num_feature":"12","num_nodes":"7","size_leaf_vector":"1"}},{"base_weights":[-1.683325E-1,-4.960492E-1,-1.3322875E-1,1.9572841E-4,-4.3626484E-3,-1.4640582E-3,5.377461E-4],"categories":[],"categories_nodes":[],"categories_segments":[],"categories_sizes":[],"default_left":[0,0,0,0,0,0,0],"id":61,"left_children":[1,3,5,-1,-1,-1,-1],"loss_changes":[8.759035E0,7.527275E-1,5.437318E0,0E0,0E0,0E0,0E0],"parents":[2147483647,0,0,1,1,2,2],"right_children":[2,4,6,-1,-1,-1,-1],"split_conditions":[-1.5912533E0,-2.7268875E-1,-8.378549E-1,1.9572841E-4,-4.3626484E-3,-1.4640582E-3,5.377461E-4],"split_indices":[4,10,4,0,0,0,0],"split_type":[0,0,0,0,0,0,0],"sum_hessian":[7.661292E2,7.285441E1,6.932748E2,2.606894E0,7.024751E1,5.769182E2,1.1635656E2],"tree_param":{"num_deleted":"0","num_feature":"12","num_nodes":"7","size_leaf_vector":"1"}},{"base_weights":[-5.6842538E-3,-2.4914277E-1,4.618345E-1,-6.506501E-4,-3.600222E-3,5.350929E-3,2.4768896E-3],"categories":[],"categories_nodes":[],"categories_segments":[],"categories_sizes":[],"default_left":[0,0,0,0,0,0,0],"id":62,"left_children":[1,3,5,-1,-1,-1,-1],"loss_changes":[8.862637E1,1.5505882E1,7.49881E0,0E0,0E0,0E0,0E0],"parents":[2147483647,0,0,1,1,2,2],"right_children":[2,4,6,-1,-1,-1,-1],"split_conditions":[-5.6033087E-1,9.5172E-2,-7.4172854E-1,-6.506501E-4,-3.600222E-3,5.350929E-3,2.4768896E-3],"split_indices":[5,3,8,0,0,0,0],"split_type":[0,0,0,0,0,0,0],"sum_hessian":[7.766331E2,5.1099936E2,2.6563376E2,2.5907086E2,2.5192851E2,1.3104297E2,1.3459079E2],"tree_param":{"num_deleted":"0","num_feature":"12","num_nodes":"7","size_leaf_vector":"1"}},{"base_weights":[1.6801327E-1,-1.0573142E-1,5.754803E-1,-2.6677444E-3,7.044801E-4,7.3967236E-3,3.2169656E-3],"categories":[],"categories_nodes":[],"categories_segments":[],"categories_sizes":[],"default_left":[0,0,0,0,0,0,0],"id":63,"left_children":[1,3,5,-1,-1,-1,-1],"loss_changes":[8.8143234E1,1.8750309E1,1.8179344E1,0E0,0E0,0E0,0E0],"parents":[2147483647,0,0,1,1,2,2],"right_children":[2,4,6,-1,-1,-1,-1],"split_conditions":[-1.7716527E-2,-7.572369E-1,-1.8962294E0,-2.6677444E-3,7.044801E-4,7.3967236E-3,3.2169656E-3],"split_indices":[3,3,5,0,0,0,0],"split_type":[0,0,0,0,0,0,0],"sum_hessian":[7.886797E2,4.7219196E2,3.1648773E2,2.2365218E2,2.4853978E2,1.2390526E2,1.9258246E2],"tree_param":{"num_deleted":"0","num_feature":"12","num_nodes":"7","size_leaf_vector":"1"}},{"base_weights":[-1.6736278E-1,-4.9405217E-1,-1.3243465E-1,2.0255739E-4,-4.345763E-3,-1.4560288E-3,5.365462E-4],"categories":[],"categories_nodes":[],"categories_segments":[],"categories_sizes":[],"default_left":[0,0,0,0,0,0,0],"id":64,"left_children":[1,3,5,-1,-1,-1,-1],"loss_changes":[8.680893E0,7.496338E-1,5.3870277E0,0E0,0E0,0E0,0E0],"parents":[2147483647,0,0,1,1,2,2],"right_children":[2,4,6,-1,-1,-1,-1],"split_conditions":[-1.5912533E0,-2.7268875E-1,-8.378549E-1,2.0255739E-4,-4.345763E-3,-1.4560288E-3,5.365462E-4],"split_indices":[4,10,4,0,0,0,0],"split_type":[0,0,0,0,0,0,0],"sum_hessian":[7.655054E2,7.266943E1,6.9283594E2,2.6048257E0,7.006461E1,5.764691E2,1.1636686E2],"tree_param":{"num_deleted":"0","num_feature":"12","num_nodes":"7","size_leaf_vector":"1"}},{"base_weights":[-5.649465E-3,-2.4792643E-1,4.5837456E-1,-4.75481E-3,-1.2828814E-3,4.3281754E-3,-5.491897E-4],"categories":[],"categories_nodes":[],"categories_segments":[],"categories_sizes":[],"default_left":[0,0,0,0,0,0,0],"id":65,"left_children":[1,3,5,-1,-1,-1,-1],"loss_changes":[8.751686E1,1.5380257E1,7.4278946E0,0E0,0E0,0E0,0E0],"parents":[2147483647,0,0,1,1,2,2],"right_children":[2,4,6,-1,-1,-1,-1],"split_conditions":[-5.6033087E-1,-1.8371252E0,-1.1620816E-1,-4.75481E-3,-1.2828814E-3,4.3281754E-3,-5.491897E-4],"split_indices":[5,5,6,0,0,0,0],"split_type":[0,0,0,0,0,0,0],"sum_hessian":[7.7645416E2,5.1041907E2,2.660351E2,1.1880416E2,3.916149E2,2.4161995E2,2.4415157E1],"tree_param":{"num_deleted":"0","num_feature":"12","num_nodes":"7","size_leaf_vector":"1"}},{"base_weights":[1.668436E-1,5.067457E-1,-1.5669352E-1,7.331985E-3,2.8154142E-3,-3.5750994E-3,-3.3012257E-4],"categories":[],"categories_nodes":[],"categories_segments":[],"categories_sizes":[],"default_left":[0,0,0,0,0,0,0],"id":66,"left_children":[1,3,5,-1,-1,-1,-1],"loss_changes":[8.6956314E1,2.384021E1,1.2661597E1,0E0,0E0,0E0,0E0],"parents":[2147483647,0,0,1,1,2,2],"right_children":[2,4,6,-1,-1,-1,-1],"split_conditions":[-1.0058922E0,-1.8962294E0,-1.146851E0,7.331985E-3,2.8154142E-3,-3.5750994E-3,-3.3012257E-4],"split_indices":[5,5,3,0,0,0,0],"split_type":[0,0,0,0,0,0,0],"sum_hessian":[7.8899884E2,3.8449222E2,4.0450665E2,1.2420313E2,2.6028906E2,1.2340045E2,2.811062E2],"tree_param":{"num_deleted":"0","num_feature":"12","num_nodes":"7","size_leaf_vector":"1"}},{"base_weights":[-1.6639325E-1,-4.9219745E-1,-1.3161904E-1,2.0799895E-4,-4.330056E-3,-1.4475426E-3,5.3394877E-4],"categories":[],"categories_nodes":[],"categories_segments":[],"categories_sizes":[],"default_left":[0,0,0,0,0,0,0],"id":67,"left_children":[1,3,5,-1,-1,-1,-1],"loss_changes":[8.6123295E0,7.464371E-1,5.327386E0,0E0,0E0,0E0,0E0],"parents":[2147483647,0,0,1,1,2,2],"right_children":[2,4,6,-1,-1,-1,-1],"split_conditions":[-1.5912533E0,-2.7268875E-1,-8.378549E-1,2.0799895E-4,-4.330056E-3,-1.4475426E-3,5.3394877E-4],"split_indices":[4,10,4,0,0,0,0],"split_type":[0,0,0,0,0,0,0],"sum_hessian":[7.64881E2,7.249659E1,6.923844E2,2.6031756E0,6.989342E1,5.7599524E2,1.16389145E2],"tree_param":{"num_deleted":"0","num_feature":"12","num_nodes":"7","size_leaf_vector":"1"}},{"base_weights":[-5.620725E-3,-2.4668498E-1,4.548409E-1,-6.4194313E-4,-3.5716724E-3,4.2948234E-3,-5.514437E-4],"categories":[],"categories_nodes":[],"categories_segments":[],"categories_sizes":[],"default_left":[0,0,0,0,0,0,0],"id":68,"left_children":[1,3,5,-1,-1,-1,-1],"loss_changes":[8.638997E1,1.5262541E1,7.336361E0,0E0,0E0,0E0,0E0],"parents":[2147483647,0,0,1,1,2,2],"right_children":[2,4,6,-1,-1,-1,-1],"split_conditions":[-5.6033087E-1,9.5172E-2,-1.1620816E-1,-6.4194313E-4,-3.5716724E-3,4.2948234E-3,-5.514437E-4],"split_indices":[5,3,6,0,0,0,0],"split_type":[0,0,0,0,0,0,0],"sum_hessian":[7.762713E2,5.0982712E2,2.6644418E2,2.5887555E2,2.5095157E2,2.4202483E2,2.4419357E1],"tree_param":{"num_deleted":"0","num_feature":"12","num_nodes":"7","size_leaf_vector":"1"}},{"base_weights":[1.6568023E-1,5.0268376E-1,-1.558455E-1,7.271593E-3,2.792365E-3,-3.5605228E-3,-3.2792042E-4],"categories":[],"categories_nodes":[],"categories_segments":[],"categories_sizes":[],"default_left":[0,0,0,0,0,0,0],"id":69,"left_children":[1,3,5,-1,-1,-1,-1],"loss_changes":[8.571319E1,2.3492561E1,1.2547704E1,0E0,0E0,0E0,0E0],"parents":[2147483647,0,0,1,1,2,2],"right_children":[2,4,6,-1,-1,-1,-1],"split_conditions":[-1.0058922E0,-1.8962294E0,-1.146851E0,7.271593E-3,2.792365E-3,-3.5605228E-3,-3.2792042E-4],"split_indices":[5,5,3,0,0,0,0],"split_type":[0,0,0,0,0,0,0],"sum_hessian":[7.893153E2,3.8510666E2,4.0420865E2,1.2447724E2,2.6062943E2,1.2316169E2,2.8104694E2],"tree_param":{"num_deleted":"0","num_feature":"12","num_nodes":"7","size_leaf_vector":"1"}},{"base_weights":[-1.6542959E-1,-4.9024427E-1,-1.3082567E-1,2.1452573E-4,-4.3135434E-3,-1.439575E-3,5.330908E-4],"categories":[],"categories_nodes":[],"categories_segments":[],"categories_sizes":[],"default_left":[0,0,0,0,0,0,0],"id":70,"left_children":[1,3,5,-1,-1,-1,-1],"loss_changes":[8.537249E0,7.4337196E-1,5.279663E0,0E0,0E0,0E0,0E0],"parents":[2147483647,0,0,1,1,2,2],"right_children":[2,4,6,-1,-1,-1,-1],"split_conditions":[-1.5912533E0,-2.7268875E-1,-8.378549E-1,2.1452573E-4,-4.3135434E-3,-1.439575E-3,5.330908E-4],"split_indices":[4,10,4,0,0,0,0],"split_type":[0,0,0,0,0,0,0],"sum_hessian":[7.6425726E2,7.231305E1,6.919442E2,2.6011922E0,6.971185E1,5.75548E2,1.1639625E2],"tree_param":{"num_deleted":"0","num_feature":"12","num_nodes":"7","size_leaf_vector":"1"}},{"base_weights":[-5.5893823E-3,-2.454795E-1,4.5144138E-1,-4.722659E-3,-1.2689821E-3,5.2362666E-3,2.4133397E-3],"categories":[],"categories_nodes":[],"categories_segments":[],"categories_sizes":[],"default_left":[0,0,0,0,0,0,0],"id":71,"left_children":[1,3,5,-1,-1,-1,-1],"loss_changes":[8.530784E1,1.5151537E1,7.269966E0,0E0,0E0,0E0,0E0],"parents":[2147483647,0,0,1,1,2,2],"right_children":[2,4,6,-1,-1,-1,-1],"split_conditions":[-5.6033087E-1,-1.8371252E0,-7.4172854E-1,-4.722659E-3,-1.2689821E-3,5.2362666E-3,2.4133397E-3],"split_indices":[5,5,8,0,0,0,0],"split_type":[0,0,0,0,0,0,0],"sum_hessian":[7.760816E2,5.092468E2,2.668348E2,1.18157646E2,3.9108914E2,1.3174805E2,1.3508676E2],"tree_param":{"num_deleted":"0","num_feature":"12","num_nodes":"7","size_leaf_vector":"1"}},{"base_weights":[1.6452417E-1,4.9875194E-1,-1.550584E-1,7.2088707E-3,2.77181E-3,-3.545475E-3,-3.268172E-4],"categories":[],"categories_nodes":[],"categories_segments":[],"categories_sizes":[],"default_left":[0,0,0,0,0,0,0],"id":72,"left_children":[1,3,5,-1,-1,-1,-1],"loss_changes":[8.4525955E1,2.3095535E1,1.2421972E1,0E0,0E0,0E0,0E0],"parents":[2147483647,0,0,1,1,2,2],"right_children":[2,4,6,-1,-1,-1,-1],"split_conditions":[-1.0058922E0,-1.8962294E0,-1.146851E0,7.2088707E-3,2.77181E-3,-3.545475E-3,-3.268172E-4],"split_indices":[5,5,3,0,0,0,0],"split_type":[0,0,0,0,0,0,0],"sum_hessian":[7.8961847E2,3.8569156E2,4.039269E2,1.2475788E2,2.609337E2,1.2291375E2,2.8101315E2],"tree_param":{"num_deleted":"0","num_feature":"12","num_nodes":"7","size_leaf_vector":"1"}},{"base_weights":[-1.6446882E-1,-4.883984E-1,-1.3001908E-1,2.200245E-4,-4.297919E-3,-1.4312536E-3,5.3095614E-4],"categories":[],"categories_nodes":[],"categories_segments":[],"categories_sizes":[],"default_left":[0,0,0,0,0,0,0],"id":73,"left_children":[1,3,5,-1,-1,-1,-1],"loss_changes":[8.469282E0,7.402344E-1,5.223832E0,0E0,0E0,0E0,0E0],"parents":[2147483647,0,0,1,1,2,2],"right_children":[2,4,6,-1,-1,-1,-1],"split_conditions":[-1.5912533E0,-2.7268875E-1,-8.378549E-1,2.200245E-4,-4.297919E-3,-1.4312536E-3,5.3095614E-4],"split_indices":[4,10,4,0,0,0,0],"split_type":[0,0,0,0,0,0,0],"sum_hessian":[7.6363495E2,7.2138855E1,6.914961E2,2.5995202E0,6.953934E1,5.750815E2,1.164146E2],"tree_param":{"num_deleted":"0","num_feature":"12","num_nodes":"7","size_leaf_vector":"1"}},{"base_weights":[-5.557113E-3,-2.4428001E-1,4.4808716E-1,-6.3348364E-4,-3.5437082E-3,4.2323675E-3,-5.644796E-4],"categories":[],"categories_nodes":[],"categories_segments":[],"categories_sizes":[],"default_left":[0,0,0,0,0,0,0],"id":74,"left_children":[1,3,5,-1,-1,-1,-1],"loss_changes":[8.4242584E1,1.5025402E1,7.1981277E0,0E0,0E0,0E0,0E0],"parents":[2147483647,0,0,1,1,2,2],"right_children":[2,4,6,-1,-1,-1,-1],"split_conditions":[-5.6033087E-1,9.5172E-2,-1.1620816E-1,-6.3348364E-4,-3.5437082E-3,4.2323675E-3,-5.644796E-4],"split_indices":[5,3,6,0,0,0,0],"split_type":[0,0,0,0,0,0,0],"sum_hessian":[7.758864E2,5.0866913E2,2.6721732E2,2.5868536E2,2.4998375E2,2.4277293E2,2.4444384E1],"tree_param":{"num_deleted":"0","num_feature":"12","num_nodes":"7","size_leaf_vector":"1"}},{"base_weights":[1.6337898E-1,-1.0371054E-1,5.5758893E-1,-2.619962E-3,6.8274816E-4,7.150373E-3,3.12181E-3],"categories":[],"categories_nodes":[],"categories_segments":[],"categories_sizes":[],"default_left":[0,0,0,0,0,0,0],"id":75,"left_children":[1,3,5,-1,-1,-1,-1],"loss_changes":[8.333223E1,1.7945011E1,1.7012215E1,0E0,0E0,0E0,0E0],"parents":[2147483647,0,0,1,1,2,2],"right_children":[2,4,6,-1,-1,-1,-1],"split_conditions":[-1.7716527E-2,-7.572369E-1,-1.8962294E0,-2.619962E-3,6.8274816E-4,7.150373E-3,3.12181E-3],"split_indices":[3,3,5,0,0,0,0],"split_type":[0,0,0,0,0,0,0],"sum_hessian":[7.899101E2,4.7131583E2,3.1859424E2,2.223954E2,2.4892044E2,1.2501572E2,1.9357852E2],"tree_param":{"num_deleted":"0","num_feature":"12","num_nodes":"7","size_leaf_vector":"1"}},{"base_weights":[-1.6351265E-1,-4.864614E-1,-1.2923214E-1,2.265293E-4,-4.2815516E-3,-1.413577E-3,5.798759E-4],"categories":[],"categories_nodes":[],"categories_segments":[],"categories_sizes":[],"default_left":[0,0,0,0,0,0,0],"id":76,"left_children":[1,3,5,-1,-1,-1,-1],"loss_changes":[8.395397E0,7.3721695E-1,5.178238E0,0E0,0E0,0E0,0E0],"parents":[2147483647,0,0,1,1,2,2],"right_children":[2,4,6,-1,-1,-1,-1],"split_conditions":[-1.5912533E0,-2.7268875E-1,-8.317021E-1,2.265293E-4,-4.2815516E-3,-1.413577E-3,5.798759E-4],"split_indices":[4,10,4,0,0,0,0],"split_type":[0,0,0,0,0,0,0],"sum_hessian":[7.630119E2,7.195452E1,6.910574E2,2.5975378E0,6.935699E1,5.803886E2,1.1066875E2],"tree_param":{"num_deleted":"0","num_feature":"12","num_nodes":"7","size_leaf_vector":"1"}},{"base_weights":[-5.5266586E-3,-2.4308538E-1,4.447564E-1,-4.690923E-3,-1.2555633E-3,4.2007463E-3,-5.650353E-4],"categories":[],"categories_nodes":[],"categories_segments":[],"categories_sizes":[],"default_left":[0,0,0,0,0,0,0],"id":77,"left_children":[1,3,5,-1,-1,-1,-1],"loss_changes":[8.318902E1,1.4924377E1,7.1068993E0,0E0,0E0,0E0,0E0],"parents":[2147483647,0,0,1,1,2,2],"right_children":[2,4,6,-1,-1,-1,-1],"split_conditions":[-5.6033087E-1,-1.8371252E0,-1.1620816E-1,-4.690923E-3,-1.2555633E-3,4.2007463E-3,-5.650353E-4],"split_indices":[5,5,6,0,0,0,0],"split_type":[0,0,0,0,0,0,0],"sum_hessian":[7.756846E2,5.0808896E2,2.675956E2,1.1750947E2,3.9057947E2,2.431502E2,2.4445398E1],"tree_param":{"num_deleted":"0","num_feature":"12","num_nodes":"7","size_leaf_vector":"1"}},{"base_weights":[1.6224527E-1,4.9106026E-1,-1.5351555E-1,7.0895823E-3,2.7304045E-3,-3.5192373E-3,-3.2256718E-4],"categories":[],"categories_nodes":[],"categories_segments":[],"categories_sizes":[],"default_left":[0,0,0,0,0,0,0],"id":78,"left_children":[1,3,5,-1,-1,-1,-1],"loss_changes":[8.22211E1,2.2370773E1,1.2221324E1,0E0,0E0,0E0,0E0],"parents":[2147483647,0,0,1,1,2,2],"right_children":[2,4,6,-1,-1,-1,-1],"split_conditions":[-1.0058922E0,-1.8962294E0,-1.146851E0,7.0895823E-3,2.7304045E-3,-3.5192373E-3,-3.2256718E-4],"split_indices":[5,5,3,0,0,0,0],"split_type":[0,0,0,0,0,0,0],"sum_hessian":[7.901797E2,3.868164E2,4.0336328E2,1.25279495E2,2.615369E2,1.2247913E2,2.8088416E2],"tree_param":{"num_deleted":"0","num_feature":"12","num_nodes":"7","size_leaf_vector":"1"}},{"base_weights":[-1.6255765E-1,-4.8463458E-1,-1.2842955E-1,2.3196032E-4,-4.266094E-3,-1.4052736E-3,5.7706976E-4],"categories":[],"categories_nodes":[],"categories_segments":[],"categories_sizes":[],"default_left":[0,0,0,0,0,0,0],"id":79,"left_children":[1,3,5,-1,-1,-1,-1],"loss_changes":[8.328833E0,7.3412514E-1,5.120908E0,0E0,0E0,0E0,0E0],"parents":[2147483647,0,0,1,1,2,2],"right_children":[2,4,6,-1,-1,-1,-1],"split_conditions":[-1.5912533E0,-2.7268875E-1,-8.317021E-1,2.3196032E-4,-4.266094E-3,-1.4052736E-3,5.7706976E-4],"split_indices":[4,10,4,0,0,0,0],"split_type":[0,0,0,0,0,0,0],"sum_hessian":[7.62389E2,7.1779945E1,6.90609E2,2.595882E0,6.918407E1,5.799176E2,1.1069144E2],"tree_param":{"num_deleted":"0","num_feature":"12","num_nodes":"7","size_leaf_vector":"1"}},{"base_weights":[-5.499774E-3,-2.4186657E-1,4.4136506E-1,-4.673813E-3,-1.2492132E-3,5.125443E-3,2.351577E-3],"categories":[],"categories_nodes":[],"categories_segments":[],"categories_sizes":[],"default_left":[0,0,0,0,0,0,0],"id":80,"left_children":[1,3,5,-1,-1,-1,-1],"loss_changes":[8.212136E1,1.47950535E1,7.0522842E0,0E0,0E0,0E0,0E0],"parents":[2147483647,0,0,1,1,2,2],"right_children":[2,4,6,-1,-1,-1,-1],"split_conditions":[-5.6033087E-1,-1.8371252E0,-7.4172854E-1,-4.673813E-3,-1.2492132E-3,5.125443E-3,2.351577E-3],"split_indices":[5,5,8,0,0,0,0],"split_type":[0,0,0,0,0,0,0],"sum_hessian":[7.754769E2,5.0749756E2,2.679794E2,1.17156075E2,3.903415E2,1.3241718E2,1.3556223E2],"tree_param":{"num_deleted":"0","num_feature":"12","num_nodes":"7","size_leaf_vector":"1"}},{"base_weights":[1.6111587E-1,4.8725995E-1,-1.5274101E-1,7.029743E-3,2.710418E-3,-3.5043745E-3,-3.2150306E-4],"categories":[],"categories_nodes":[],"categories_segments":[],"categories_sizes":[],"default_left":[0,0,0,0,0,0,0],"id":81,"left_children":[1,3,5,-1,-1,-1,-1],"loss_changes":[8.108888E1,2.2001266E1,1.2098678E1,0E0,0E0,0E0,0E0],"parents":[2147483647,0,0,1,1,2,2],"right_children":[2,4,6,-1,-1,-1,-1],"split_conditions":[-1.0058922E0,-1.8962294E0,-1.146851E0,7.029743E-3,2.710418E-3,-3.5043745E-3,-3.2150306E-4],"split_indices":[5,5,3,0,0,0,0],"split_type":[0,0,0,0,0,0,0],"sum_hessian":[7.9044617E2,3.8736438E2,4.0308182E2,1.25534775E2,2.618296E2,1.2223111E2,2.808507E2],"tree_param":{"num_deleted":"0","num_feature":"12","num_nodes":"7","size_leaf_vector":"1"}},{"base_weights":[-1.616078E-1,-4.8280868E-1,-1.2763286E-1,2.3745606E-4,-4.2506494E-3,-1.4068304E-3,5.258491E-4],"categories":[],"categories_nodes":[],"categories_segments":[],"categories_sizes":[],"default_left":[0,0,0,0,0,0,0],"id":82,"left_children":[1,3,5,-1,-1,-1,-1],"loss_changes":[8.262299E0,7.3106194E-1,5.067379E0,0E0,0E0,0E0,0E0],"parents":[2147483647,0,0,1,1,2,2],"right_children":[2,4,6,-1,-1,-1,-1],"split_conditions":[-1.5912533E0,-2.7268875E-1,-8.378549E-1,2.3745606E-4,-4.2506494E-3,-1.4068304E-3,5.258491E-4],"split_indices":[4,10,4,0,0,0,0],"split_type":[0,0,0,0,0,0,0],"sum_hessian":[7.617679E2,7.16045E1,6.901634E2,2.5942044E0,6.90103E1,5.737058E2,1.1645755E2],"tree_param":{"num_deleted":"0","num_feature":"12","num_nodes":"7","size_leaf_vector":"1"}},{"base_weights":[-5.468862E-3,-2.406837E-1,4.3811262E-1,-6.195929E-4,-3.5028756E-3,4.1395454E-3,-5.7914807E-4],"categories":[],"categories_nodes":[],"categories_segments":[],"categories_sizes":[],"default_left":[0,0,0,0,0,0,0],"id":83,"left_children":[1,3,5,-1,-1,-1,-1],"loss_changes":[8.1098434E1,1.4697203E1,6.9779663E0,0E0,0E0,0E0,0E0],"parents":[2147483647,0,0,1,1,2,2],"right_children":[2,4,6,-1,-1,-1,-1],"split_conditions":[-5.6033087E-1,9.5172E-2,-1.1620816E-1,-6.195929E-4,-3.5028756E-3,4.1395454E-3,-5.7914807E-4],"split_indices":[5,3,6,0,0,0,0],"split_type":[0,0,0,0,0,0,0],"sum_hessian":[7.7526373E2,5.0692014E2,2.6834357E2,2.5837225E2,2.4854788E2,2.438713E2,2.4472275E1],"tree_param":{"num_deleted":"0","num_feature":"12","num_nodes":"7","size_leaf_vector":"1"}},{"base_weights":[1.5999702E-1,4.8341736E-1,-1.5191229E-1,6.9739344E-3,2.6883634E-3,-3.4901113E-3,-3.1934617E-4],"categories":[],"categories_nodes":[],"categories_segments":[],"categories_sizes":[],"default_left":[0,0,0,0,0,0,0],"id":84,"left_children":[1,3,5,-1,-1,-1,-1],"loss_changes":[7.993859E1,2.1694756E1,1.1989899E1,0E0,0E0,0E0,0E0],"parents":[2147483647,0,0,1,1,2,2],"right_children":[2,4,6,-1,-1,-1,-1],"split_conditions":[-1.0058922E0,-1.8962294E0,-1.146851E0,6.9739344E-3,2.6883634E-3,-3.4901113E-3,-3.1934617E-4],"split_indices":[5,5,3,0,0,0,0],"split_type":[0,0,0,0,0,0,0],"sum_hessian":[7.907019E2,3.8791794E2,4.0278397E2,1.2576877E2,2.6214917E2,1.2199234E2,2.8079163E2],"tree_param":{"num_deleted":"0","num_feature":"12","num_nodes":"7","size_leaf_vector":"1"}},{"base_weights":[-1.6066279E-1,-4.8089516E-1,-1.268555E-1,2.439249E-4,-4.234489E-3,-1.3893736E-3,5.739524E-4],"categories":[],"categories_nodes":[],"categories_segments":[],"categories_sizes":[],"default_left":[0,0,0,0,0,0,0],"id":85,"left_children":[1,3,5,-1,-1,-1,-1],"loss_changes":[8.190134E0,7.281208E-1,5.0228786E0,0E0,0E0,0E0,0E0],"parents":[2147483647,0,0,1,1,2,2],"right_children":[2,4,6,-1,-1,-1,-1],"split_conditions":[-1.5912533E0,-2.7268875E-1,-8.317021E-1,2.439249E-4,-4.234489E-3,-1.3893736E-3,5.739524E-4],"split_indices":[4,10,4,0,0,0,0],"split_type":[0,0,0,0,0,0,0],"sum_hessian":[7.611462E2,7.1419136E1,6.8972705E2,2.592225E0,6.882691E1,5.7901086E2,1.1071622E2],"tree_param":{"num_deleted":"0","num_feature":"12","num_nodes":"7","size_leaf_vector":"1"}},{"base_weights":[-5.4396857E-3,-2.3950498E-1,4.3488136E-1,-4.6426356E-3,-1.2359819E-3,4.1088923E-3,-5.7959644E-4],"categories":[],"categories_nodes":[],"categories_segments":[],"categories_sizes":[],"default_left":[0,0,0,0,0,0,0],"id":86,"left_children":[1,3,5,-1,-1,-1,-1],"loss_changes":[8.0086296E1,1.4574224E1,6.890461E0,0E0,0E0,0E0,0E0],"parents":[2147483647,0,0,1,1,2,2],"right_children":[2,4,6,-1,-1,-1,-1],"split_conditions":[-5.6033087E-1,-1.8371252E0,-1.1620816E-1,-4.6426356E-3,-1.2359819E-3,4.1088923E-3,-5.7959644E-4],"split_indices":[5,5,6,0,0,0,0],"split_type":[0,0,0,0,0,0,0],"sum_hessian":[7.750444E2,5.0634058E2,2.687038E2,1.1650462E2,3.8983594E2,2.4423073E2,2.447307E1],"tree_param":{"num_deleted":"0","num_feature":"12","num_nodes":"7","size_leaf_vector":"1"}},{"base_weights":[1.5888627E-1,-1.0180081E-1,5.406739E-1,-2.5729719E-3,6.603559E-4,6.9158752E-3,3.0337616E-3],"categories":[],"categories_nodes":[],"categories_segments":[],"categories_sizes":[],"default_left":[0,0,0,0,0,0,0],"id":87,"left_children":[1,3,5,-1,-1,-1,-1],"loss_changes":[7.8874954E1,1.7160328E1,1.5900497E1,0E0,0E0,0E0,0E0],"parents":[2147483647,0,0,1,1,2,2],"right_children":[2,4,6,-1,-1,-1,-1],"split_conditions":[-1.7716527E-2,-7.572369E-1,-1.8962294E0,-2.5729719E-3,6.603559E-4,6.9158752E-3,3.0337616E-3],"split_indices":[3,3,5,0,0,0,0],"split_type":[0,0,0,0,0,0,0],"sum_hessian":[7.9094415E2,4.704507E2,3.2049344E2,2.2114246E2,2.4930824E2,1.2600785E2,1.9448561E2],"tree_param":{"num_deleted":"0","num_feature":"12","num_nodes":"7","size_leaf_vector":"1"}},{"base_weights":[-1.5971917E-1,-4.7910908E-1,-1.2606019E-1,2.491376E-4,-4.2193825E-3,-1.3812708E-3,5.719799E-4],"categories":[],"categories_nodes":[],"categories_segments":[],"categories_sizes":[],"default_left":[0,0,0,0,0,0,0],"id":88,"left_children":[1,3,5,-1,-1,-1,-1],"loss_changes":[8.126261E0,7.250843E-1,4.9714384E0,0E0,0E0,0E0,0E0],"parents":[2147483647,0,0,1,1,2,2],"right_children":[2,4,6,-1,-1,-1,-1],"split_conditions":[-1.5912533E0,-2.7268875E-1,-8.317021E-1,2.491376E-4,-4.2193825E-3,-1.3812708E-3,5.719799E-4],"split_indices":[4,10,4,0,0,0,0],"split_type":[0,0,0,0,0,0,0],"sum_hessian":[7.605256E2,7.124527E1,6.8928033E2,2.590628E0,6.865464E1,5.7854846E2,1.10731834E2],"tree_param":{"num_deleted":"0","num_feature":"12","num_nodes":"7","size_leaf_vector":"1"}},{"base_weights":[-5.412086E-3,-2.3833278E-1,4.3168342E-1,-6.1137305E-4,-3.475534E-3,5.0176294E-3,2.2935057E-3],"categories":[],"categories_nodes":[],"categories_segments":[],"categories_sizes":[],"default_left":[0,0,0,0,0,0,0],"id":89,"left_children":[1,3,5,-1,-1,-1,-1],"loss_changes":[7.908817E1,1.4469248E1,6.8311844E0,0E0,0E0,0E0,0E0],"parents":[2147483647,0,0,1,1,2,2],"right_children":[2,4,6,-1,-1,-1,-1],"split_conditions":[-5.6033087E-1,9.5172E-2,-7.4172854E-1,-6.1137305E-4,-3.475534E-3,5.0176294E-3,2.2935057E-3],"split_indices":[5,3,8,0,0,0,0],"split_type":[0,0,0,0,0,0,0],"sum_hessian":[7.748215E2,5.0576352E2,2.6905795E2,2.5818604E2,2.4757748E2,1.3305507E2,1.3600288E2],"tree_param":{"num_deleted":"0","num_feature":"12","num_nodes":"7","size_leaf_vector":"1"}},{"base_weights":[1.5778631E-1,4.7605857E-1,-1.5040086E-1,6.8617524E-3,2.6484204E-3,-3.4638045E-3,-3.1553474E-4],"categories":[],"categories_nodes":[],"categories_segments":[],"categories_sizes":[],"default_left":[0,0,0,0,0,0,0],"id":90,"left_children":[1,3,5,-1,-1,-1,-1],"loss_changes":[7.777344E1,2.1035408E1,1.1789231E1,0E0,0E0,0E0,0E0],"parents":[2147483647,0,0,1,1,2,2],"right_children":[2,4,6,-1,-1,-1,-1],"split_conditions":[-1.0058922E0,-1.8962294E0,-1.146851E0,6.8617524E-3,2.6484204E-3,-3.4638045E-3,-3.1553474E-4],"split_indices":[5,5,3,0,0,0,0],"split_type":[0,0,0,0,0,0,0],"sum_hessian":[7.911692E2,3.8894827E2,4.022209E2,1.2622652E2,2.6272177E2,1.21548996E2,2.8067188E2],"tree_param":{"num_deleted":"0","num_feature":"12","num_nodes":"7","size_leaf_vector":"1"}},{"base_weights":[-1.587823E-1,-4.7716355E-1,-1.2529702E-1,2.5606353E-4,-4.202969E-3,-1.383054E-3,5.217023E-4],"categories":[],"categories_nodes":[],"categories_segments":[],"categories_sizes":[],"default_left":[0,0,0,0,0,0,0],"id":91,"left_children":[1,3,5,-1,-1,-1,-1],"loss_changes":[8.052282E0,7.222309E-1,4.92136E0,0E0,0E0,0E0,0E0],"parents":[2147483647,0,0,1,1,2,2],"right_children":[2,4,6,-1,-1,-1,-1],"split_conditions":[-1.5912533E0,-2.7268875E-1,-8.378549E-1,2.5606353E-4,-4.202969E-3,-1.383054E-3,5.217023E-4],"split_indices":[4,10,4,0,0,0,0],"split_type":[0,0,0,0,0,0,0],"sum_hessian":[7.5990466E2,7.105517E1,6.888495E2,2.5885065E0,6.846666E1,5.723576E2,1.1649186E2],"tree_param":{"num_deleted":"0","num_feature":"12","num_nodes":"7","size_leaf_vector":"1"}},{"base_weights":[-5.3833546E-3,-2.3713493E-1,4.2843455E-1,-4.6117725E-3,-1.2225395E-3,4.049559E-3,-5.93293E-4],"categories":[],"categories_nodes":[],"categories_segments":[],"categories_sizes":[],"default_left":[0,0,0,0,0,0,0],"id":92,"left_children":[1,3,5,-1,-1,-1,-1],"loss_changes":[7.8077545E1,1.4359673E1,6.767109E0,0E0,0E0,0E0,0E0],"parents":[2147483647,0,0,1,1,2,2],"right_children":[2,4,6,-1,-1,-1,-1],"split_conditions":[-5.6033087E-1,-1.8371252E0,-1.1620816E-1,-4.6117725E-3,-1.2225395E-3,4.049559E-3,-5.93293E-4],"split_indices":[5,5,6,0,0,0,0],"split_type":[0,0,0,0,0,0,0],"sum_hessian":[7.74587E2,5.0517096E2,2.6941602E2,1.15850716E2,3.8932025E2,2.4491698E2,2.4499035E1],"tree_param":{"num_deleted":"0","num_feature":"12","num_nodes":"7","size_leaf_vector":"1"}},{"base_weights":[1.5669237E-1,4.7241923E-1,-1.4963758E-1,6.8053785E-3,2.629133E-3,-3.4497192E-3,-3.1411447E-4],"categories":[],"categories_nodes":[],"categories_segments":[],"categories_sizes":[],"default_left":[0,0,0,0,0,0,0],"id":93,"left_children":[1,3,5,-1,-1,-1,-1],"loss_changes":[7.670781E1,2.0698105E1,1.16781645E1,0E0,0E0,0E0,0E0],"parents":[2147483647,0,0,1,1,2,2],"right_children":[2,4,6,-1,-1,-1,-1],"split_conditions":[-1.0058922E0,-1.8962294E0,-1.146851E0,6.8053785E-3,2.629133E-3,-3.4497192E-3,-3.1411447E-4],"split_indices":[5,5,3,0,0,0,0],"split_type":[0,0,0,0,0,0,0],"sum_hessian":[7.913884E2,3.8944977E2,4.0193866E2,1.2644984E2,2.6299994E2,1.2131045E2,2.806282E2],"tree_param":{"num_deleted":"0","num_feature":"12","num_nodes":"7","size_leaf_vector":"1"}},{"base_weights":[-1.5784608E-1,-4.7539064E-1,-1.24508396E-1,2.612664E-4,-4.1879797E-3,-1.3654483E-3,5.6808506E-4],"categories":[],"categories_nodes":[],"categories_segments":[],"categories_sizes":[],"default_left":[0,0,0,0,0,0,0],"id":94,"left_children":[1,3,5,-1,-1,-1,-1],"loss_changes":[7.9893417E0,7.192364E-1,4.871546E0,0E0,0E0,0E0,0E0],"parents":[2147483647,0,0,1,1,2,2],"right_children":[2,4,6,-1,-1,-1,-1],"split_conditions":[-1.5912533E0,-2.7268875E-1,-8.317021E-1,2.612664E-4,-4.1879797E-3,-1.3654483E-3,5.6808506E-4],"split_indices":[4,10,4,0,0,0,0],"split_type":[0,0,0,0,0,0,0],"sum_hessian":[7.5928516E2,7.088063E1,6.8840454E2,2.586908E0,6.8293724E1,5.776416E2,1.10762924E2],"tree_param":{"num_deleted":"0","num_feature":"12","num_nodes":"7","size_leaf_vector":"1"}},{"base_weights":[-5.356506E-3,-2.3597269E-1,4.2529836E-1,-6.0308864E-4,-3.4481152E-3,4.946611E-3,2.2552244E-3],"categories":[],"categories_nodes":[],"categories_segments":[],"categories_sizes":[],"default_left":[0,0,0,0,0,0,0],"id":95,"left_children":[1,3,5,-1,-1,-1,-1],"loss_changes":[7.710531E1,1.4242926E1,6.686779E0,0E0,0E0,0E0,0E0],"parents":[2147483647,0,0,1,1,2,2],"right_children":[2,4,6,-1,-1,-1,-1],"split_conditions":[-5.6033087E-1,9.5172E-2,-7.4172854E-1,-6.0308864E-4,-3.4481152E-3,4.946611E-3,2.2552244E-3],"split_indices":[5,3,8,0,0,0,0],"split_type":[0,0,0,0,0,0,0],"sum_hessian":[7.74353E2,5.0459427E2,2.6975876E2,2.5799808E2,2.4659619E2,1.3346786E2,1.362909E2],"tree_param":{"num_deleted":"0","num_feature":"12","num_nodes":"7","size_leaf_vector":"1"}},{"base_weights":[1.556061E-1,-1.0029008E-1,5.282715E-1,-2.537795E-3,6.452851E-4,6.75285E-3,2.9648682E-3],"categories":[],"categories_nodes":[],"categories_segments":[],"categories_sizes":[],"default_left":[0,0,0,0,0,0,0],"id":96,"left_children":[1,3,5,-1,-1,-1,-1],"loss_changes":[7.563812E1,1.6601444E1,1.5207207E1,0E0,0E0,0E0,0E0],"parents":[2147483647,0,0,1,1,2,2],"right_children":[2,4,6,-1,-1,-1,-1],"split_conditions":[-1.7716527E-2,-7.572369E-1,-1.8962294E0,-2.537795E-3,6.452851E-4,6.75285E-3,2.9648682E-3],"split_indices":[3,3,5,0,0,0,0],"split_type":[0,0,0,0,0,0,0],"sum_hessian":[7.915991E2,4.697614E2,3.2183774E2,2.2019458E2,2.4956683E2,1.26653625E2,1.9518411E2],"tree_param":{"num_deleted":"0","num_feature":"12","num_nodes":"7","size_leaf_vector":"1"}},{"base_weights":[-1.569171E-1,-4.7348136E-1,-1.2374897E-1,2.6795303E-4,-4.1718753E-3,-1.3577959E-3,5.667426E-4],"categories":[],"categories_nodes":[],"categories_segments":[],"categories_sizes":[],"default_left":[0,0,0,0,0,0,0],"id":97,"left_children":[1,3,5,-1,-1,-1,-1],"loss_changes":[7.9177837E0,7.164135E-1,4.8261576E0,0E0,0E0,0E0,0E0],"parents":[2147483647,0,0,1,1,2,2],"right_children":[2,4,6,-1,-1,-1,-1],"split_conditions":[-1.5912533E0,-2.7268875E-1,-8.317021E-1,2.6795303E-4,-4.1718753E-3,-1.3577959E-3,5.667426E-4],"split_indices":[4,10,4,0,0,0,0],"split_type":[0,0,0,0,0,0,0],"sum_hessian":[7.586663E2,7.0691826E1,6.879745E2,2.5848532E0,6.810697E1,5.77201E2,1.1077351E2],"tree_param":{"num_deleted":"0","num_feature":"12","num_nodes":"7","size_leaf_vector":"1"}},{"base_weights":[-5.326523E-3,-2.3481525E-1,4.2220375E-1,-4.581295E-3,-1.2095509E-3,3.992066E-3,-6.0521025E-4],"categories":[],"categories_nodes":[],"categories_segments":[],"categories_sizes":[],"default_left":[0,0,0,0,0,0,0],"id":98,"left_children":[1,3,5,-1,-1,-1,-1],"loss_changes":[7.61478E1,1.4146603E1,6.643776E0,0E0,0E0,0E0,0E0],"parents":[2147483647,0,0,1,1,2,2],"right_children":[2,4,6,-1,-1,-1,-1],"split_conditions":[-5.6033087E-1,-1.8371252E0,-1.1620816E-1,-4.581295E-3,-1.2095509E-3,3.992066E-3,-6.0521025E-4],"split_indices":[5,5,6,0,0,0,0],"split_type":[0,0,0,0,0,0,0],"sum_hessian":[7.741099E2,5.0401608E2,2.7009384E2,1.1519619E2,3.888199E2,2.4557225E2,2.4521603E1],"tree_param":{"num_deleted":"0","num_feature":"12","num_nodes":"7","size_leaf_vector":"1"}},{"base_weights":[1.545317E-1,4.6529338E-1,-1.4814688E-1,6.6981064E-3,2.590218E-3,-3.4237478E-3,-3.1034657E-4],"categories":[],"categories_nodes":[],"categories_segments":[],"categories_sizes":[],"default_left":[0,0,0,0,0,0,0],"id":99,"left_children":[1,3,5,-1,-1,-1,-1],"loss_changes":[7.463929E1,2.0083344E1,1.1482863E1,0E0,0E0,0E0,0E0],"parents":[2147483647,0,0,1,1,2,2],"right_children":[2,4,6,-1,-1,-1,-1],"split_conditions":[-1.0058922E0,-1.8962294E0,-1.146851E0,6.6981064E-3,2.590218E-3,-3.4237478E-3,-3.1034657E-4],"split_indices":[5,5,3,0,0,0,0],"split_type":[0,0,0,0,0,0,0],"sum_hessian":[7.91788E2,3.9041235E2,4.0137564E2,1.2686149E2,2.6355087E2,1.20867775E2,2.8050784E2],"tree_param":{"num_deleted":"0","num_feature":"12","num_nodes":"7","size_leaf_vector":"1"}},{"base_weights":[-1.5598767E-1,-4.7170067E-1,-1.22969374E-1,2.7335115E-4,-4.1568307E-3,-1.3591836E-3,5.1667297E-4],"categories":[],"categories_nodes":[],"categories_segments":[],"categories_sizes":[],"default_left":[0,0,0,0,0,0,0],"id":100,"left_children":[1,3,5,-1,-1,-1,-1],"loss_changes":[7.854536E0,7.134819E-1,4.7727337E0,0E0,0E0,0E0,0E0],"parents":[2147483647,0,0,1,1,2,2],"right_children":[2,4,6,-1,-1,-1,-1],"split_conditions":[-1.5912533E0,-2.7268875E-1,-8.378549E-1,2.7335115E-4,-4.1568307E-3,-1.3591836E-3,5.1667297E-4],"split_indices":[4,10,4,0,0,0,0],"split_type":[0,0,0,0,0,0,0],"sum_hessian":[7.580473E2,7.0514885E1,6.875324E2,2.5831926E0,6.7931694E1,5.709989E2,1.16533516E2],"tree_param":{"num_deleted":"0","num_feature":"12","num_nodes":"7","size_leaf_vector":"1"}},{"base_weights":[-5.302641E-3,-2.3363423E-1,4.1903937E-1,-4.5648483E-3,-1.2034057E-3,3.9622774E-3,-6.069579E-4],"categories":[],"categories_nodes":[],"categories_segments":[],"categories_sizes":[],"default_left":[0,0,0,0,0,0,0],"id":101,"left_children":[1,3,5,-1,-1,-1,-1],"loss_changes":[7.5174934E1,1.4025196E1,6.56509E0,0E0,0E0,0E0,0E0],"parents":[2147483647,0,0,1,1,2,2],"right_children":[2,4,6,-1,-1,-1,-1],"split_conditions":[-5.6033087E-1,-1.8371252E0,-1.1620816E-1,-4.5648483E-3,-1.2034057E-3,3.9622774E-3,-6.069579E-4],"split_indices":[5,5,6,0,0,0,0],"split_type":[0,0,0,0,0,0,0],"sum_hessian":[7.738633E2,5.0342682E2,2.7043643E2,1.1483961E2,3.885872E2,2.4591168E2,2.452475E1],"tree_param":{"num_deleted":"0","num_feature":"12","num_nodes":"7","size_leaf_vector":"1"}},{"base_weights":[1.534624E-1,4.6176872E-1,-1.473944E-1,6.6441554E-3,2.5714338E-3,-3.4098362E-3,-3.0894787E-4],"categories":[],"categories_nodes":[],"categories_segments":[],"categories_sizes":[],"default_left":[0,0,0,0,0,0,0],"id":102,"left_children":[1,3,5,-1,-1,-1,-1],"loss_changes":[7.3621185E1,1.9768173E1,1.1374685E1,0E0,0E0,0E0,0E0],"parents":[2147483647,0,0,1,1,2,2],"right_children":[2,4,6,-1,-1,-1,-1],"split_conditions":[-1.0058922E0,-1.8962294E0,-1.146851E0,6.6441554E-3,2.5714338E-3,-3.4098362E-3,-3.0894787E-4],"split_indices":[5,5,3,0,0,0,0],"split_type":[0,0,0,0,0,0,0],"sum_hessian":[7.919739E2,3.9088022E2,4.0109366E2,1.2706161E2,2.6381863E2,1.2062957E2,2.8046408E2],"tree_param":{"num_deleted":"0","num_feature":"12","num_nodes":"7","size_leaf_vector":"1"}},{"base_weights":[-1.5506253E-1,-4.6994635E-1,-1.2219082E-1,2.785412E-4,-4.142008E-3,-1.341802E-3,5.6227564E-4],"categories":[],"categories_nodes":[],"categories_segments":[],"categories_sizes":[],"default_left":[0,0,0,0,0,0,0],"id":103,"left_children":[1,3,5,-1,-1,-1,-1],"loss_changes":[7.7929077E0,7.1055603E-1,4.7241774E0,0E0,0E0,0E0,0E0],"parents":[2147483647,0,0,1,1,2,2],"right_children":[2,4,6,-1,-1,-1,-1],"split_conditions":[-1.5912533E0,-2.7268875E-1,-8.317021E-1,2.785412E-4,-4.142008E-3,-1.341802E-3,5.6227564E-4],"split_indices":[4,10,4,0,0,0,0],"split_type":[0,0,0,0,0,0,0],"sum_hessian":[7.5742975E2,7.033947E1,6.870903E2,2.5815918E0,6.775788E1,5.762814E2,1.1080888E2],"tree_param":{"num_deleted":"0","num_feature":"12","num_nodes":"7","size_leaf_vector":"1"}},{"base_weights":[-5.276997E-3,-2.3248756E-1,4.15994E-1,-5.896836E-4,-3.4085666E-3,4.8450883E-3,2.1978442E-3],"categories":[],"categories_nodes":[],"categories_segments":[],"categories_sizes":[],"default_left":[0,0,0,0,0,0,0],"id":104,"left_children":[1,3,5,-1,-1,-1,-1],"loss_changes":[7.4240555E1,1.393314E1,6.4957848E0,0E0,0E0,0E0,0E0],"parents":[2147483647,0,0,1,1,2,2],"right_children":[2,4,6,-1,-1,-1,-1],"split_conditions":[-5.6033087E-1,9.5172E-2,-7.4172854E-1,-5.896836E-4,-3.4085666E-3,4.8450883E-3,2.1978442E-3],"split_indices":[5,3,8,0,0,0,0],"split_type":[0,0,0,0,0,0,0],"sum_hessian":[7.736134E2,5.028511E2,2.707623E2,2.5769336E2,2.4515776E2,1.3404651E2,1.3671579E2],"tree_param":{"num_deleted":"0","num_feature":"12","num_nodes":"7","size_leaf_vector":"1"}},{"base_weights":[1.5240055E-1,4.466384E-1,-1.5839706E-1,6.5938975E-3,2.4809893E-3,-3.3954643E-3,-3.9850612E-4],"categories":[],"categories_nodes":[],"categories_segments":[],"categories_sizes":[],"default_left":[0,0,0,0,0,0,0],"id":105,"left_children":[1,3,5,-1,-1,-1,-1],"loss_changes":[7.260325E1,2.0575394E1,1.0423038E1,0E0,0E0,0E0,0E0],"parents":[2147483647,0,0,1,1,2,2],"right_children":[2,4,6,-1,-1,-1,-1],"split_conditions":[-9.742915E-1,-1.8962294E0,-1.146851E0,6.5938975E-3,2.4809893E-3,-3.3954643E-3,-3.9850612E-4],"split_indices":[5,5,3,0,0,0,0],"split_type":[0,0,0,0,0,0,0],"sum_hessian":[7.9215204E2,4.0669208E2,3.8545996E2,1.2724364E2,2.7944846E2,1.2038224E2,2.6507773E2],"tree_param":{"num_deleted":"0","num_feature":"12","num_nodes":"7","size_leaf_vector":"1"}},{"base_weights":[-1.5414467E-1,-4.6805924E-1,-1.2144091E-1,2.851828E-4,-4.1261E-3,-1.3342386E-3,5.6094443E-4],"categories":[],"categories_nodes":[],"categories_segments":[],"categories_sizes":[],"default_left":[0,0,0,0,0,0,0],"id":106,"left_children":[1,3,5,-1,-1,-1,-1],"loss_changes":[7.723007E0,7.077961E-1,4.6799765E0,0E0,0E0,0E0,0E0],"parents":[2147483647,0,0,1,1,2,2],"right_children":[2,4,6,-1,-1,-1,-1],"split_conditions":[-1.5912533E0,-2.7268875E-1,-8.317021E-1,2.851828E-4,-4.1261E-3,-1.3342386E-3,5.6094443E-4],"split_indices":[4,10,4,0,0,0,0],"split_type":[0,0,0,0,0,0,0],"sum_hessian":[7.56813E2,7.015001E1,6.8666296E2,2.5795434E0,6.7570465E1,5.758437E2,1.10819305E2],"tree_param":{"num_deleted":"0","num_feature":"12","num_nodes":"7","size_leaf_vector":"1"}},{"base_weights":[-5.248195E-3,-2.3134543E-1,4.1298848E-1,-4.5348834E-3,-1.1905914E-3,3.9064884E-3,-6.1849155E-4],"categories":[],"categories_nodes":[],"categories_segments":[],"categories_sizes":[],"default_left":[0,0,0,0,0,0,0],"id":107,"left_children":[1,3,5,-1,-1,-1,-1],"loss_changes":[7.332023E1,1.381797E1,6.4468384E0,0E0,0E0,0E0,0E0],"parents":[2147483647,0,0,1,1,2,2],"right_children":[2,4,6,-1,-1,-1,-1],"split_conditions":[-5.6033087E-1,-1.8371252E0,-1.1620816E-1,-4.5348834E-3,-1.1905914E-3,3.9064884E-3,-6.1849155E-4],"split_indices":[5,5,6,0,0,0,0],"split_type":[0,0,0,0,0,0,0],"sum_hessian":[7.7335504E2,5.0227426E2,2.7108078E2,1.1418334E2,3.8809094E2,2.465343E2,2.454649E1],"tree_param":{"num_deleted":"0","num_feature":"12","num_nodes":"7","size_leaf_vector":"1"}},{"base_weights":[1.5134718E-1,-9.845495E-2,5.126703E-1,-2.4920003E-3,6.2365324E-4,6.5414654E-3,2.8824958E-3],"categories":[],"categories_nodes":[],"categories_segments":[],"categories_sizes":[],"default_left":[0,0,0,0,0,0,0],"id":108,"left_children":[1,3,5,-1,-1,-1,-1],"loss_changes":[7.165466E1,1.5868574E1,1.4263573E1,0E0,0E0,0E0,0E0],"parents":[2147483647,0,0,1,1,2,2],"right_children":[2,4,6,-1,-1,-1,-1],"split_conditions":[-1.7716527E-2,-7.572369E-1,-1.8962294E0,-2.4920003E-3,6.2365324E-4,6.5414654E-3,2.8824958E-3],"split_indices":[3,3,5,0,0,0,0],"split_type":[0,0,0,0,0,0,0],"sum_hessian":[7.923167E2,4.688813E2,3.2343542E2,2.1894728E2,2.4993402E2,1.274289E2,1.9600652E2],"tree_param":{"num_deleted":"0","num_feature":"12","num_nodes":"7","size_leaf_vector":"1"}},{"base_weights":[-1.5322661E-1,-4.6631747E-1,-1.2066867E-1,2.9036053E-4,-4.111389E-3,-1.3357209E-3,5.125566E-4],"categories":[],"categories_nodes":[],"categories_segments":[],"categories_sizes":[],"default_left":[0,0,0,0,0,0,0],"id":109,"left_children":[1,3,5,-1,-1,-1,-1],"loss_changes":[7.6622906E0,7.049093E-1,4.6327734E0,0E0,0E0,0E0,0E0],"parents":[2147483647,0,0,1,1,2,2],"right_children":[2,4,6,-1,-1,-1,-1],"split_conditions":[-1.5912533E0,-2.7268875E-1,-8.378549E-1,2.9036053E-4,-4.111389E-3,-1.3357209E-3,5.125566E-4],"split_indices":[4,10,4,0,0,0,0],"split_type":[0,0,0,0,0,0,0],"sum_hessian":[7.561971E2,6.99741E1,6.8622296E2,2.5779428E0,6.739616E1,5.696562E2,1.1656675E2],"tree_param":{"num_deleted":"0","num_feature":"12","num_nodes":"7","size_leaf_vector":"1"}},{"base_weights":[-5.223543E-3,-2.302045E-1,4.0998876E-1,-5.816066E-4,-3.382112E-3,3.8780952E-3,-6.187862E-4],"categories":[],"categories_nodes":[],"categories_segments":[],"categories_sizes":[],"default_left":[0,0,0,0,0,0,0],"id":110,"left_children":[1,3,5,-1,-1,-1,-1],"loss_changes":[7.2406364E1,1.3719738E1,6.368271E0,0E0,0E0,0E0,0E0],"parents":[2147483647,0,0,1,1,2,2],"right_children":[2,4,6,-1,-1,-1,-1],"split_conditions":[-5.6033087E-1,9.5172E-2,-1.1620816E-1,-5.816066E-4,-3.382112E-3,3.8780952E-3,-6.187862E-4],"split_indices":[5,3,6,0,0,0,0],"split_type":[0,0,0,0,0,0,0],"sum_hessian":[7.730951E2,5.0169788E2,2.7139722E2,2.5750876E2,2.4418913E2,2.4685025E2,2.454696E1],"tree_param":{"num_deleted":"0","num_feature":"12","num_nodes":"7","size_leaf_vector":"1"}},{"base_weights":[1.5030539E-1,4.3999937E-1,-1.5682516E-1,6.492614E-3,2.4445863E-3,-3.3704503E-3,-3.9338684E-4],"categories":[],"categories_nodes":[],"categories_segments":[],"categories_sizes":[],"default_left":[0,0,0,0,0,0,0],"id":111,"left_children":[1,3,5,-1,-1,-1,-1],"loss_changes":[7.06667E1,1.998124E1,1.0258245E1,0E0,0E0,0E0,0E0],"parents":[2147483647,0,0,1,1,2,2],"right_children":[2,4,6,-1,-1,-1,-1],"split_conditions":[-9.742915E-1,-1.8962294E0,-1.146851E0,6.492614E-3,2.4445863E-3,-3.3704503E-3,-3.9338684E-4],"split_indices":[5,5,3,0,0,0,0],"split_type":[0,0,0,0,0,0,0],"sum_hessian":[7.924655E2,4.075863E2,3.848792E2,1.27597046E2,2.7998926E2,1.199501E2,2.649291E2],"tree_param":{"num_deleted":"0","num_feature":"12","num_nodes":"7","size_leaf_vector":"1"}},{"base_weights":[-1.5231448E-1,-4.6445093E-1,-1.19922265E-1,2.968974E-4,-4.095659E-3,-1.3928178E-3,2.534144E-4],"categories":[],"categories_nodes":[],"categories_segments":[],"categories_sizes":[],"default_left":[0,0,0,0,0,0,0],"id":112,"left_children":[1,3,5,-1,-1,-1,-1],"loss_changes":[7.593931E0,7.02178E-1,4.596759E0,0E0,0E0,0E0,0E0],"parents":[2147483647,0,0,1,1,2,2],"right_children":[2,4,6,-1,-1,-1,-1],"split_conditions":[-1.5912533E0,-2.7268875E-1,-8.852044E-1,2.968974E-4,-4.095659E-3,-1.3928178E-3,2.534144E-4],"split_indices":[4,10,1,0,0,0,0],"split_type":[0,0,0,0,0,0,0],"sum_hessian":[7.555806E2,6.978483E1,6.8579584E2,2.5759206E0,6.720891E1,5.283904E2,1.5740546E2],"tree_param":{"num_deleted":"0","num_feature":"12","num_nodes":"7","size_leaf_vector":"1"}},{"base_weights":[-5.2000363E-3,-2.290429E-1,4.069429E-1,-4.505214E-3,-1.1775075E-3,4.746671E-3,2.1418477E-3],"categories":[],"categories_nodes":[],"categories_segments":[],"categories_sizes":[],"default_left":[0,0,0,0,0,0,0],"id":113,"left_children":[1,3,5,-1,-1,-1,-1],"loss_changes":[7.148277E1,1.3617144E1,6.3138885E0,0E0,0E0,0E0,0E0],"parents":[2147483647,0,0,1,1,2,2],"right_children":[2,4,6,-1,-1,-1,-1],"split_conditions":[-5.6033087E-1,-1.8371252E0,-7.4172854E-1,-4.505214E-3,-1.1775075E-3,4.746671E-3,2.1418477E-3],"split_indices":[5,5,8,0,0,0,0],"split_type":[0,0,0,0,0,0,0],"sum_hessian":[7.728266E2,5.0110886E2,2.7171774E2,1.1352572E2,3.8758313E2,1.345938E2,1.3712393E2],"tree_param":{"num_deleted":"0","num_feature":"12","num_nodes":"7","size_leaf_vector":"1"}},{"base_weights":[1.4926642E-1,-2.142791E-1,3.9062315E-1,-4.8511005E-3,-1.2467311E-3,6.4415326E-3,2.1423472E-3],"categories":[],"categories_nodes":[],"categories_segments":[],"categories_sizes":[],"default_left":[0,0,0,0,0,0,0],"id":114,"left_children":[1,3,5,-1,-1,-1,-1],"loss_changes":[6.9718376E1,7.543127E0,2.411995E1,0E0,0E0,0E0,0E0],"parents":[2147483647,0,0,1,1,2,2],"right_children":[2,4,6,-1,-1,-1,-1],"split_conditions":[-4.3759522E-1,-1.6164873E0,-1.8962294E0,-4.8511005E-3,-1.2467311E-3,6.4415326E-3,2.1423472E-3],"split_indices":[3,3,5,0,0,0,0],"split_type":[0,0,0,0,0,0,0],"sum_hessian":[7.926105E2,3.1629733E2,4.7631317E2,4.858188E1,2.6771545E2,1.2776819E2,3.4854498E2],"tree_param":{"num_deleted":"0","num_feature":"12","num_nodes":"7","size_leaf_vector":"1"}},{"base_weights":[-1.5140459E-1,-4.626956E-1,-1.191615E-1,3.0232975E-4,-4.0808455E-3,-1.3115514E-3,5.587948E-4],"categories":[],"categories_nodes":[],"categories_segments":[],"categories_sizes":[],"default_left":[0,0,0,0,0,0,0],"id":115,"left_children":[1,3,5,-1,-1,-1,-1],"loss_changes":[7.5325165E0,6.993637E-1,4.557107E0,0E0,0E0,0E0,0E0],"parents":[2147483647,0,0,1,1,2,2],"right_children":[2,4,6,-1,-1,-1,-1],"split_conditions":[-1.5912533E0,-2.7268875E-1,-8.317021E-1,3.0232975E-4,-4.0808455E-3,-1.3115514E-3,5.587948E-4],"split_indices":[4,10,4,0,0,0,0],"split_type":[0,0,0,0,0,0,0],"sum_hessian":[7.549695E2,6.960618E1,6.8536334E2,2.57424E0,6.703194E1,5.7452875E2,1.1083459E2],"tree_param":{"num_deleted":"0","num_feature":"12","num_nodes":"7","size_leaf_vector":"1"}},{"base_weights":[-5.1737004E-3,-2.2791272E-1,4.0401143E-1,-5.735198E-4,-3.3555399E-3,3.823253E-3,-6.318284E-4],"categories":[],"categories_nodes":[],"categories_segments":[],"categories_sizes":[],"default_left":[0,0,0,0,0,0,0],"id":116,"left_children":[1,3,5,-1,-1,-1,-1],"loss_changes":[7.059511E1,1.3506945E1,6.2591896E0,0E0,0E0,0E0,0E0],"parents":[2147483647,0,0,1,1,2,2],"right_children":[2,4,6,-1,-1,-1,-1],"split_conditions":[-5.6033087E-1,9.5172E-2,-1.1620816E-1,-5.735198E-4,-3.3555399E-3,3.823253E-3,-6.318284E-4],"split_indices":[5,3,6,0,0,0,0],"split_type":[0,0,0,0,0,0,0],"sum_hessian":[7.725557E2,5.0053412E2,2.7202164E2,2.5732428E2,2.4320982E2,2.4745023E2,2.4571402E1],"tree_param":{"num_deleted":"0","num_feature":"12","num_nodes":"7","size_leaf_vector":"1"}},{"base_weights":[1.4823462E-1,-9.707765E-2,5.0134814E-1,-2.4574082E-3,6.074365E-4,6.3940464E-3,2.8198187E-3],"categories":[],"categories_nodes":[],"categories_segments":[],"categories_sizes":[],"default_left":[0,0,0,0,0,0,0],"id":117,"left_children":[1,3,5,-1,-1,-1,-1],"loss_changes":[6.8805885E1,1.5327637E1,1.3659302E1,0E0,0E0,0E0,0E0],"parents":[2147483647,0,0,1,1,2,2],"right_children":[2,4,6,-1,-1,-1,-1],"split_conditions":[-1.7716527E-2,-7.572369E-1,-1.8962294E0,-2.4574082E-3,6.074365E-4,6.3940464E-3,2.8198187E-3],"split_indices":[3,3,5,0,0,0,0],"split_type":[0,0,0,0,0,0,0],"sum_hessian":[7.927516E2,4.6820734E2,3.2454428E2,2.1800027E2,2.5020706E2,1.2792275E2,1.9662152E2],"tree_param":{"num_deleted":"0","num_feature":"12","num_nodes":"7","size_leaf_vector":"1"}},{"base_weights":[-1.5049961E-1,-4.608959E-1,-1.18413426E-1,3.0829824E-4,-4.0656743E-3,-1.3774916E-3,2.5591732E-4],"categories":[],"categories_nodes":[],"categories_segments":[],"categories_sizes":[],"default_left":[0,0,0,0,0,0,0],"id":118,"left_children":[1,3,5,-1,-1,-1,-1],"loss_changes":[7.468342E0,6.966219E-1,4.5231094E0,0E0,0E0,0E0,0E0],"parents":[2147483647,0,0,1,1,2,2],"right_children":[2,4,6,-1,-1,-1,-1],"split_conditions":[-1.5912533E0,-2.7268875E-1,-8.852044E-1,3.0829824E-4,-4.0656743E-3,-1.3774916E-3,2.5591732E-4],"split_indices":[4,10,1,0,0,0,0],"split_type":[0,0,0,0,0,0,0],"sum_hessian":[7.5435596E2,6.9421364E1,6.849346E2,2.5723834E0,6.6848976E1,5.2756647E2,1.573681E2],"tree_param":{"num_deleted":"0","num_feature":"12","num_nodes":"7","size_leaf_vector":"1"}},{"base_weights":[-5.147801E-3,-2.2677074E-1,4.0106207E-1,-4.4759577E-3,-1.1646235E-3,3.7955348E-3,-6.333641E-4],"categories":[],"categories_nodes":[],"categories_segments":[],"categories_sizes":[],"default_left":[0,0,0,0,0,0,0],"id":119,"left_children":[1,3,5,-1,-1,-1,-1],"loss_changes":[6.970585E1,1.3420103E1,6.1876564E0,0E0,0E0,0E0,0E0],"parents":[2147483647,0,0,1,1,2,2],"right_children":[2,4,6,-1,-1,-1,-1],"split_conditions":[-5.6033087E-1,-1.8371252E0,-1.1620816E-1,-4.4759577E-3,-1.1646235E-3,3.7955348E-3,-6.333641E-4],"split_indices":[5,5,6,0,0,0,0],"split_type":[0,0,0,0,0,0,0],"sum_hessian":[7.722804E2,4.9995374E2,2.7232666E2,1.1286959E2,3.8708417E2,2.477524E2,2.4574265E1],"tree_param":{"num_deleted":"0","num_feature":"12","num_nodes":"7","size_leaf_vector":"1"}},{"base_weights":[1.4721525E-1,4.3040663E-1,-1.5459262E-1,6.3443426E-3,2.3931107E-3,-3.3332678E-3,-3.8713674E-4],"categories":[],"categories_nodes":[],"categories_segments":[],"categories_sizes":[],"default_left":[0,0,0,0,0,0,0],"id":120,"left_children":[1,3,5,-1,-1,-1,-1],"loss_changes":[6.7917946E1,1.9102127E1,1.0006964E1,0E0,0E0,0E0,0E0],"parents":[2147483647,0,0,1,1,2,2],"right_children":[2,4,6,-1,-1,-1,-1],"split_conditions":[-9.742915E-1,-1.8962294E0,-1.146851E0,6.3443426E-3,2.3931107E-3,-3.3332678E-3,-3.8713674E-4],"split_indices":[5,5,3,0,0,0,0],"split_type":[0,0,0,0,0,0,0],"sum_hessian":[7.928679E2,4.0882986E2,3.8403802E2,1.2807982E2,2.8075006E2,1.1930234E2,2.647357E2],"tree_param":{"num_deleted":"0","num_feature":"12","num_nodes":"7","size_leaf_vector":"1"}},{"base_weights":[-1.495956E-1,-4.591585E-1,-1.176567E-1,3.1364127E-4,-4.0510166E-3,-1.2966251E-3,5.5773155E-4],"categories":[],"categories_nodes":[],"categories_segments":[],"categories_sizes":[],"default_left":[0,0,0,0,0,0,0],"id":121,"left_children":[1,3,5,-1,-1,-1,-1],"loss_changes":[7.4082184E0,6.938343E-1,4.4787607E0,0E0,0E0,0E0,0E0],"parents":[2147483647,0,0,1,1,2,2],"right_children":[2,4,6,-1,-1,-1,-1],"split_conditions":[-1.5912533E0,-2.7268875E-1,-8.317021E-1,3.1364127E-4,-4.0510166E-3,-1.2966251E-3,5.5773155E-4],"split_indices":[4,10,4,0,0,0,0],"split_type":[0,0,0,0,0,0,0],"sum_hessian":[7.5374524E2,6.92429E1,6.845024E2,2.5707254E0,6.667217E1,5.73661E2,1.10841385E2],"tree_param":{"num_deleted":"0","num_feature":"12","num_nodes":"7","size_leaf_vector":"1"}},{"base_weights":[-5.1266155E-3,-2.2562687E-1,3.9810488E-1,-4.4601457E-3,-1.1586722E-3,4.6506086E-3,2.0872592E-3],"categories":[],"categories_nodes":[],"categories_segments":[],"categories_sizes":[],"default_left":[0,0,0,0,0,0,0],"id":122,"left_children":[1,3,5,-1,-1,-1,-1],"loss_changes":[6.88193E1,1.3306221E1,6.137291E0,0E0,0E0,0E0,0E0],"parents":[2147483647,0,0,1,1,2,2],"right_children":[2,4,6,-1,-1,-1,-1],"split_conditions":[-5.6033087E-1,-1.8371252E0,-7.4172854E-1,-4.4601457E-3,-1.1586722E-3,4.6506086E-3,2.0872592E-3],"split_indices":[5,5,8,0,0,0,0],"split_type":[0,0,0,0,0,0,0],"sum_hessian":[7.72E2,4.9936905E2,2.7263098E2,1.1251223E2,3.868568E2,1.3511406E2,1.3751692E2],"tree_param":{"num_deleted":"0","num_feature":"12","num_nodes":"7","size_leaf_vector":"1"}},{"base_weights":[1.4619902E-1,-2.1121685E-1,3.8211527E-1,-4.8182257E-3,-1.2242392E-3,6.29541E-3,2.0966134E-3],"categories":[],"categories_nodes":[],"categories_segments":[],"categories_sizes":[],"default_left":[0,0,0,0,0,0,0],"id":123,"left_children":[1,3,5,-1,-1,-1,-1],"loss_changes":[6.7029465E1,7.458931E0,2.3082237E1,0E0,0E0,0E0,0E0],"parents":[2147483647,0,0,1,1,2,2],"right_children":[2,4,6,-1,-1,-1,-1],"split_conditions":[-4.3759522E-1,-1.6164873E0,-1.8962294E0,-4.8182257E-3,-1.2242392E-3,6.29541E-3,2.0966134E-3],"split_indices":[3,3,5,0,0,0,0],"split_type":[0,0,0,0,0,0,0],"sum_hessian":[7.9298224E2,3.1534125E2,4.7764096E2,4.8278564E1,2.6706268E2,1.282295E2,3.4941147E2],"tree_param":{"num_deleted":"0","num_feature":"12","num_nodes":"7","size_leaf_vector":"1"}},{"base_weights":[-1.4869699E-1,-4.574208E-1,-1.16906054E-1,3.1905144E-4,-4.03636E-3,-1.3619633E-3,2.576055E-4],"categories":[],"categories_nodes":[],"categories_segments":[],"categories_sizes":[],"default_left":[0,0,0,0,0,0,0],"id":124,"left_children":[1,3,5,-1,-1,-1,-1],